{"learner":{"attributes":{"scikit_learn":"{\"_estimator_type\": \"classifier\"}"},"feature_names":["MultipleLines_No","MultipleLines_No_phone_service","MultipleLines_Yes","InternetService_DSL","InternetService_Fiber_optic","InternetService_No","OnlineSecurity_No","OnlineSecurity_No_internet_service","OnlineSecurity_Yes","OnlineBackup_No","OnlineBackup_No_internet_service","OnlineBackup_Yes","DeviceProtection_No","DeviceProtection_No_internet_service","DeviceProtection_Yes","TechSupport_No","TechSupport_No_internet_service","TechSupport_Yes","StreamingTV_No","StreamingTV_No_internet_service","StreamingTV_Yes","StreamingMovies_No","StreamingMovies_No_internet_service","StreamingMovies_Yes","Contract_Month_to_month","Contract_One_year","Contract_Two_year","PaperlessBilling_No","PaperlessBilling_Yes","PaymentMethod_Bank_transfer_(automatic)","PaymentMethod_Credit_card_(automatic)","PaymentMethod_Electronic_check","PaymentMethod_Mailed_check","gender","SeniorCitizen","Partner","Dependents","tenure","PhoneService","MonthlyCharges","TotalCharges"],"feature_types":["float","float","float","float","float","float","float","float","float","float","float","float","float","float","float","float","float","float","float","float","float","float","float","float","float","float","float","float","float","float","float","float","float","float","float","float","float","float","float","float","float"],"gradient_booster":{"model":{"gbtree_model_param":{"num_parallel_tree":"1","num_trees":"100"},"iteration_indptr":[0,1,2,3,4,5,6,7,8,9,10,11,12,13,14,15,16,17,18,19,20,21,22,23,24,25,26,27,28,29,30,31,32,33,34,35,36,37,38,39,40,41,42,43,44,45,46,47,48,49,50,51,52,53,54,55,56,57,58,59,60,61,62,63,64,65,66,67,68,69,70,71,72,73,74,75,76,77,78,79,80,81,82,83,84,85,86,87,88,89,90,91,92,93,94,95,96,97,98,99,100],"tree_info":[0,0,0,0,0,0,0,0,0,0,0,0,0,0,0,0,0,0,0,0,0,0,0,0,0,0,0,0,0,0,0,0,0,0,0,0,0,0,0,0,0,0,0,0,0,0,0,0,0,0,0,0,0,0,0,0,0,0,0,0,0,0,0,0,0,0,0,0,0,0,0,0,0,0,0,0,0,0,0,0,0,0,0,0,0,0,0,0,0,0,0,0,0,0,0,0,0,0,0,0],"trees":[{"base_weights":[-7.782954E-2,-1.0573014E0,7.260615E-1,-1.1973763E0,-6.357302E-1,-6.9180224E-3,1.327564E0,-1.2697239E-1,-9.140842E-2,-9.602998E-2,-2.8592974E-2,6.908858E-2,-5.309529E-2,2.073543E-1,6.536364E-2],"categories":[],"categories_nodes":[],"categories_segments":[],"categories_sizes":[],"default_left":[0,0,0,0,0,0,0,0,0,0,0,0,0,0,0],"id":0,"left_children":[1,3,5,7,9,11,13,-1,-1,-1,-1,-1,-1,-1,-1],"loss_changes":[7.8541565E2,2.5789001E1,2.4157611E2,5.732971E0,1.2698467E1,9.103864E1,1.4994318E2,0E0,0E0,0E0,0E0,0E0,0E0,0E0,0E0],"parents":[2147483647,0,0,1,1,2,2,3,3,4,4,5,5,6,6],"right_children":[2,4,6,8,10,12,14,-1,-1,-1,-1,-1,-1,-1,-1],"split_conditions":[1E0,9.5375985E-1,1E0,1E0,1E0,-1.0775272E0,-7.1143985E-1,-1.2697239E-1,-9.140842E-2,-9.602998E-2,-2.8592974E-2,6.908858E-2,-5.309529E-2,2.073543E-1,6.536364E-2],"split_indices":[24,39,4,6,25,37,37,0,0,0,0,0,0,0,0],"split_type":[0,0,0,0,0,0,0,0,0,0,0,0,0,0,0],"sum_hessian":[9.955194E2,4.4861075E2,5.469087E2,3.353456E2,1.1326511E2,2.4695839E2,2.999503E2,2.6435266E2,7.099295E1,5.7846107E1,5.5419E1,1.05781525E2,1.4117686E2,1.4137912E2,1.5857115E2],"tree_param":{"num_deleted":"0","num_feature":"41","num_nodes":"15","size_leaf_vector":"1"}},{"base_weights":[-7.329433E-2,-1.0021338E0,6.322158E-1,-1.1582278E0,-6.606108E-1,-6.959999E-3,1.1291465E0,-1.0094517E-1,-1.2615065E-1,-3.890394E-2,-9.60838E-2,5.1229723E-2,-4.525247E-2,1.6415277E-1,5.0604325E-2],"categories":[],"categories_nodes":[],"categories_segments":[],"categories_sizes":[],"default_left":[0,0,0,0,0,0,0,0,0,0,0,0,0,0,0],"id":1,"left_children":[1,3,5,7,9,11,13,-1,-1,-1,-1,-1,-1,-1,-1],"loss_changes":[6.504901E2,2.207669E1,1.7921591E2,3.22464E0,1.0774403E1,5.7558548E1,1.0051477E2,0E0,0E0,0E0,0E0,0E0,0E0,0E0,0E0],"parents":[2147483647,0,0,1,1,2,2,3,3,4,4,5,5,6,6],"right_children":[2,4,6,8,10,12,14,-1,-1,-1,-1,-1,-1,-1,-1],"split_conditions":[1E0,1E0,1E0,1E0,1E0,-9.072014E-1,-3.1046528E-1,-1.0094517E-1,-1.2615065E-1,-3.890394E-2,-9.60838E-2,5.1229723E-2,-4.525247E-2,1.6415277E-1,5.0604325E-2],"split_indices":[24,4,4,26,26,40,40,0,0,0,0,0,0,0,0],"split_type":[0,0,0,0,0,0,0,0,0,0,0,0,0,0,0],"sum_hessian":[9.906845E2,4.2747357E2,5.6321094E2,2.9174124E2,1.3573233E2,2.467786E2,3.1643234E2,1.2395473E2,1.6778653E2,7.247273E1,6.3259605E1,1.1389573E2,1.3288286E2,1.7274706E2,1.4368529E2],"tree_param":{"num_deleted":"0","num_feature":"41","num_nodes":"15","size_leaf_vector":"1"}},{"base_weights":[-6.885892E-2,-9.515686E-1,5.559549E-1,-1.0946383E0,-5.4218465E-1,-2.2814779E-1,9.142106E-1,-1.17105536E-1,-8.042934E-2,-8.52596E-2,-2.2730425E-2,-3.6920365E-2,5.3260006E-2,1.4354424E-1,4.0326882E-2],"categories":[],"categories_nodes":[],"categories_segments":[],"categories_sizes":[],"default_left":[0,0,0,0,0,0,0,0,0,0,0,0,0,0,0],"id":2,"left_children":[1,3,5,7,9,11,13,-1,-1,-1,-1,-1,-1,-1,-1],"loss_changes":[5.4254626E2,2.328482E1,1.6203174E2,5.7392273E0,1.0319384E1,1.9668913E1,1.0477893E2,0E0,0E0,0E0,0E0,0E0,0E0,0E0,0E0],"parents":[2147483647,0,0,1,1,2,2,3,3,4,4,5,5,6,6],"right_children":[2,4,6,8,10,12,14,-1,-1,-1,-1,-1,-1,-1,-1],"split_conditions":[1E0,9.5375985E-1,1E0,1E0,1E0,8.926125E-1,-8.741453E-1,-1.17105536E-1,-8.042934E-2,-8.52596E-2,-2.2730425E-2,-3.6920365E-2,5.3260006E-2,1.4354424E-1,4.0326882E-2],"split_indices":[24,39,6,6,25,39,37,0,0,0,0,0,0,0,0],"split_type":[0,0,0,0,0,0,0,0,0,0,0,0,0,0,0],"sum_hessian":[9.8175354E2,4.0668448E2,5.750691E2,3.001244E2,1.06560074E2,1.8046169E2,3.946074E2,2.3519049E2,6.493391E1,5.2800896E1,5.375918E1,1.526689E2,2.7792778E1,1.9444104E2,2.0016637E2],"tree_param":{"num_deleted":"0","num_feature":"41","num_nodes":"15","size_leaf_vector":"1"}},{"base_weights":[-6.4617686E-2,-9.046967E-1,4.9123922E-1,-1.0646691E0,-5.7379466E-1,-2.2158875E-1,7.990132E-1,-1.1312199E-1,-7.458218E-2,-8.646061E-2,-3.2490104E-2,-4.5106966E-2,2.8408999E-2,1.226177E-1,3.7808795E-2],"categories":[],"categories_nodes":[],"categories_segments":[],"categories_sizes":[],"default_left":[0,0,0,0,0,0,0,0,0,0,0,0,0,0,0],"id":3,"left_children":[1,3,5,7,9,11,13,-1,-1,-1,-1,-1,-1,-1,-1],"loss_changes":[4.5438873E2,1.9898651E1,1.2866774E2,4.673645E0,9.015354E0,2.0714176E1,7.312543E1,0E0,0E0,0E0,0E0,0E0,0E0,0E0,0E0],"parents":[2147483647,0,0,1,1,2,2,3,3,4,4,5,5,6,6],"right_children":[2,4,6,8,10,12,14,-1,-1,-1,-1,-1,-1,-1,-1],"split_conditions":[1E0,1E0,1E0,1E0,1E0,1E0,-8.741453E-1,-1.1312199E-1,-7.458218E-2,-8.646061E-2,-3.2490104E-2,-4.5106966E-2,2.8408999E-2,1.226177E-1,3.7808795E-2],"split_indices":[24,4,15,6,25,4,37,0,0,0,0,0,0,0,0],"split_type":[0,0,0,0,0,0,0,0,0,0,0,0,0,0,0],"sum_hessian":[9.711191E2,3.8644638E2,5.8467267E2,2.5901147E2,1.2743491E2,1.7639908E2,4.0827362E2,2.1217735E2,4.6834133E1,5.7627827E1,6.980709E1,1.2141019E2,5.498889E1,2.016857E2,2.065879E2],"tree_param":{"num_deleted":"0","num_feature":"41","num_nodes":"15","size_leaf_vector":"1"}},{"base_weights":[-6.061674E-2,-8.6067444E-1,4.3627325E-1,-1.0092652E0,-4.6039364E-1,-2.1432489E-1,7.1767735E-1,-1.1487422E-1,-8.3367206E-2,-3.0905506E-2,-1.0278952E-1,-3.389418E-2,4.266347E-2,1.18459515E-1,3.7652534E-2],"categories":[],"categories_nodes":[],"categories_segments":[],"categories_sizes":[],"default_left":[0,0,0,0,0,0,0,0,0,0,0,0,0,0,0],"id":4,"left_children":[1,3,5,7,9,11,13,-1,-1,-1,-1,-1,-1,-1,-1],"loss_changes":[3.8190988E2,2.1425201E1,1.0866657E2,5.595215E0,8.397316E0,1.4500273E1,6.549614E1,0E0,0E0,0E0,0E0,0E0,0E0,0E0,0E0],"parents":[2147483647,0,0,1,1,2,2,3,3,4,4,5,5,6,6],"right_children":[2,4,6,8,10,12,14,-1,-1,-1,-1,-1,-1,-1,-1],"split_conditions":[1E0,9.5375985E-1,1E0,1E0,1.6071134E0,8.926125E-1,-9.9617445E-1,-1.1487422E-1,-8.3367206E-2,-3.0905506E-2,-1.0278952E-1,-3.389418E-2,4.266347E-2,1.18459515E-1,3.7652534E-2],"split_indices":[24,39,6,25,37,39,37,0,0,0,0,0,0,0,0],"split_type":[0,0,0,0,0,0,0,0,0,0,0,0,0,0,0],"sum_hessian":[9.587369E2,3.6703326E2,5.917036E2,2.6656036E2,1.0047293E2,1.7872801E2,4.129756E2,1.4546924E2,1.210911E2,8.0539604E1,1.9933327E1,1.5003001E2,2.8698002E1,1.7330682E2,2.3966876E2],"tree_param":{"num_deleted":"0","num_feature":"41","num_nodes":"15","size_leaf_vector":"1"}},{"base_weights":[-5.6815322E-2,-8.1888545E-1,3.8914004E-1,-9.699653E-1,-4.2674002E-1,-8.655545E-2,7.366137E-1,-1.0561138E-1,-6.627385E-2,-7.2586685E-2,-1.4787512E-2,3.784639E-2,-4.8053544E-2,1.04796074E-1,3.0951018E-2],"categories":[],"categories_nodes":[],"categories_segments":[],"categories_sizes":[],"default_left":[0,0,0,0,0,0,0,0,0,0,0,0,0,0,0],"id":5,"left_children":[1,3,5,7,9,11,13,-1,-1,-1,-1,-1,-1,-1,-1],"loss_changes":[3.2190277E2,2.0300735E1,9.8844215E1,5.9596252E0,8.153082E0,4.6562416E1,4.561342E1,0E0,0E0,0E0,0E0,0E0,0E0,0E0,0E0],"parents":[2147483647,0,0,1,1,2,2,3,3,4,4,5,5,6,6],"right_children":[2,4,6,8,10,12,14,-1,-1,-1,-1,-1,-1,-1,-1],"split_conditions":[1E0,9.5375985E-1,1E0,1E0,1E0,-1.0775272E0,-5.0805795E-1,-1.0561138E-1,-6.627385E-2,-7.2586685E-2,-1.4787512E-2,3.784639E-2,-4.8053544E-2,1.04796074E-1,3.0951018E-2],"split_indices":[24,39,4,6,25,37,37,0,0,0,0,0,0,0,0],"split_type":[0,0,0,0,0,0,0,0,0,0,0,0,0,0,0],"sum_hessian":[9.4525525E2,3.4864224E2,5.9661304E2,2.5061545E2,9.8026794E1,2.5215746E2,3.4445557E2,1.9382741E2,5.6788033E1,4.652182E1,5.1504974E1,1.1567007E2,1.364874E2,1.9838477E2,1.460708E2],"tree_param":{"num_deleted":"0","num_feature":"41","num_nodes":"15","size_leaf_vector":"1"}},{"base_weights":[-5.3287644E-2,-7.791394E-1,3.484817E-1,-9.327888E-1,-3.9516535E-1,-7.8859165E-2,6.5476394E-1,-1.0875826E-1,-7.438676E-2,-2.5294859E-2,-9.6202396E-2,3.368086E-2,-4.4319738E-2,8.88585E-2,2.02505E-2],"categories":[],"categories_nodes":[],"categories_segments":[],"categories_sizes":[],"default_left":[0,0,0,0,0,0,0,0,0,0,0,0,0,0,0],"id":6,"left_children":[1,3,5,7,9,11,13,-1,-1,-1,-1,-1,-1,-1,-1],"loss_changes":[2.7186462E2,1.9226364E1,7.860689E1,6.1064453E0,7.5487957E0,3.8231567E1,3.680159E1,0E0,0E0,0E0,0E0,0E0,0E0,0E0,0E0],"parents":[2147483647,0,0,1,1,2,2,3,3,4,4,5,5,6,6],"right_children":[2,4,6,8,10,12,14,-1,-1,-1,-1,-1,-1,-1,-1],"split_conditions":[1E0,9.5375985E-1,1E0,1E0,1.6071134E0,-1.0775272E0,-2.6399973E-1,-1.0875826E-1,-7.438676E-2,-2.5294859E-2,-9.6202396E-2,3.368086E-2,-4.4319738E-2,8.88585E-2,2.02505E-2],"split_indices":[24,39,4,25,37,37,37,0,0,0,0,0,0,0,0],"split_type":[0,0,0,0,0,0,0,0,0,0,0,0,0,0,0],"sum_hessian":[9.303096E2,3.3113297E2,5.9917664E2,2.3547643E2,9.565652E1,2.504618E2,3.487148E2,1.2681387E2,1.0866256E2,7.762719E1,1.802933E1,1.1702518E2,1.3343663E2,2.2923428E2,1.1948053E2],"tree_param":{"num_deleted":"0","num_feature":"41","num_nodes":"15","size_leaf_vector":"1"}},{"base_weights":[-5.0005052E-2,-7.408589E-1,3.1275454E-1,-8.971227E-1,-3.6561498E-1,-2.1818282E-1,5.345934E-1,-9.9280775E-2,-5.7035435E-2,-6.565796E-2,-1.0865405E-2,-3.077895E-2,4.297365E-2,8.933609E-2,2.7010312E-2],"categories":[],"categories_nodes":[],"categories_segments":[],"categories_sizes":[],"default_left":[0,0,0,0,0,0,0,0,0,0,0,0,0,0,0],"id":7,"left_children":[1,3,5,7,9,11,13,-1,-1,-1,-1,-1,-1,-1,-1],"loss_changes":[2.2987843E2,1.8189087E1,7.096811E1,6.383148E0,6.996416E0,1.0465533E1,4.0045692E1,0E0,0E0,0E0,0E0,0E0,0E0,0E0,0E0],"parents":[2147483647,0,0,1,1,2,2,3,3,4,4,5,5,6,6],"right_children":[2,4,6,8,10,12,14,-1,-1,-1,-1,-1,-1,-1,-1],"split_conditions":[1E0,9.5375985E-1,1E0,1E0,1E0,1E0,-9.9617445E-1,-9.9280775E-2,-5.7035435E-2,-6.565796E-2,-1.0865405E-2,-3.077895E-2,4.297365E-2,8.933609E-2,2.7010312E-2],"split_indices":[24,39,6,6,25,34,37,0,0,0,0,0,0,0,0],"split_type":[0,0,0,0,0,0,0,0,0,0,0,0,0,0,0],"sum_hessian":[9.1533685E2,3.1479205E2,6.0054486E2,2.2126102E2,9.353104E1,1.7698201E2,4.2356284E2,1.6956912E2,5.1691895E1,4.3133972E1,5.0397064E1,1.5594052E2,2.1041489E1,1.7873727E2,2.4482556E2],"tree_param":{"num_deleted":"0","num_feature":"41","num_nodes":"15","size_leaf_vector":"1"}},{"base_weights":[-4.67137E-2,-7.040134E-1,2.8097743E-1,-8.627398E-1,-3.378297E-1,-9.073825E-2,5.432348E-1,-1.03526846E-1,-6.5971486E-2,-6.1854508E-2,-9.856991E-3,2.2483826E-2,-3.933366E-2,1.2898989E-1,4.353952E-2],"categories":[],"categories_nodes":[],"categories_segments":[],"categories_sizes":[],"default_left":[0,0,0,0,0,0,0,0,0,0,0,0,0,0,0],"id":8,"left_children":[1,3,5,7,9,11,13,-1,-1,-1,-1,-1,-1,-1,-1],"loss_changes":[1.9449767E2,1.7168274E1,5.8802223E1,6.6347656E0,6.150262E0,2.3978052E1,2.7903328E1,0E0,0E0,0E0,0E0,0E0,0E0,0E0,0E0],"parents":[2147483647,0,0,1,1,2,2,3,3,4,4,5,5,6,6],"right_children":[2,4,6,8,10,12,14,-1,-1,-1,-1,-1,-1,-1,-1],"split_conditions":[1E0,9.5375985E-1,1E0,1E0,1E0,-9.072014E-1,-9.599534E-1,-1.03526846E-1,-6.5971486E-2,-6.1854508E-2,-9.856991E-3,2.2483826E-2,-3.933366E-2,1.2898989E-1,4.353952E-2],"split_indices":[24,39,4,25,25,40,40,0,0,0,0,0,0,0,0],"split_type":[0,0,0,0,0,0,0,0,0,0,0,0,0,0,0],"sum_hessian":[9.0107855E2,2.9939273E2,6.016858E2,2.0791405E2,9.147868E1,2.4917157E2,3.5251422E2,1.10182686E2,9.773137E1,4.13633E1,5.0115383E1,1.22095985E2,1.27075584E2,4.310447E1,3.0940976E2],"tree_param":{"num_deleted":"0","num_feature":"41","num_nodes":"15","size_leaf_vector":"1"}},{"base_weights":[-4.3594174E-2,-6.683084E-1,2.5290966E-1,-8.338811E-1,-3.0182254E-1,-6.2474996E-2,5.664935E-1,-9.0163946E-2,-3.609404E-2,3.8567923E-2,-3.7814975E-2,1.4862053E-2,-3.597586E-2,1.0822294E-1,4.5758963E-2],"categories":[],"categories_nodes":[],"categories_segments":[],"categories_sizes":[],"default_left":[0,0,0,0,0,0,0,0,0,0,0,0,0,0,0],"id":9,"left_children":[1,3,5,7,9,11,13,-1,-1,-1,-1,-1,-1,-1,-1],"loss_changes":[1.6464972E2,1.7107697E1,5.9661896E1,5.971115E0,4.899741E0,1.8973383E1,1.648996E1,0E0,0E0,0E0,0E0,0E0,0E0,0E0,0E0],"parents":[2147483647,0,0,1,1,2,2,3,3,4,4,5,5,6,6],"right_children":[2,4,6,8,10,12,14,-1,-1,-1,-1,-1,-1,-1,-1],"split_conditions":[1E0,1E0,1E0,1E0,-2.6399973E-1,-6.300871E-1,-1.2402327E0,-9.0163946E-2,-3.609404E-2,3.8567923E-2,-3.7814975E-2,1.4862053E-2,-3.597586E-2,1.0822294E-1,4.5758963E-2],"split_indices":[24,6,31,31,37,37,37,0,0,0,0,0,0,0,0],"split_type":[0,0,0,0,0,0,0,0,0,0,0,0,0,0,0],"sum_hessian":[8.869801E2,2.850804E2,6.018997E2,1.95487E2,8.959341E1,3.0048746E2,3.0141226E2,1.7019646E2,2.5290548E1,8.547809E0,8.10456E1,1.7600772E2,1.2447973E2,5.0992027E1,2.5042024E2],"tree_param":{"num_deleted":"0","num_feature":"41","num_nodes":"15","size_leaf_vector":"1"}},{"base_weights":[-4.047013E-2,-5.180808E-1,2.9402724E-1,-3.4114802E-1,-9.422278E-1,6.0171294E-1,-3.4339275E-2,-6.1024327E-2,-1.6543671E-2,-9.9541865E-2,-6.480364E-2,3.446124E-2,9.6409254E-2,-3.2025088E-2,3.1351175E-2],"categories":[],"categories_nodes":[],"categories_segments":[],"categories_sizes":[],"default_left":[0,0,0,0,0,0,0,0,0,0,0,0,0,0,0],"id":10,"left_children":[1,3,5,7,9,11,13,-1,-1,-1,-1,-1,-1,-1,-1],"loss_changes":[1.4009158E2,2.6781227E1,5.2132534E1,1.202289E1,1.0095825E0,2.448146E1,2.5009249E1,0E0,0E0,0E0,0E0,0E0,0E0,0E0,0E0],"parents":[2147483647,0,0,1,1,2,2,3,3,4,4,5,5,6,6],"right_children":[2,4,6,8,10,12,14,-1,-1,-1,-1,-1,-1,-1,-1],"split_conditions":[1E0,1E0,-6.300871E-1,-1.1632613E0,1.2842863E0,3.65423E-1,1E0,-6.1024327E-2,-1.6543671E-2,-9.9541865E-2,-6.480364E-2,3.446124E-2,9.6409254E-2,-3.2025088E-2,3.1351175E-2],"split_indices":[6,26,37,39,39,39,31,0,0,0,0,0,0,0,0],"split_type":[0,0,0,0,0,0,0,0,0,0,0,0,0,0,0],"sum_hessian":[8.749369E2,3.6014978E2,5.147871E2,2.5540996E2,1.0473982E2,2.653328E2,2.4945433E2,9.991734E1,1.5549261E2,8.668355E1,1.8056276E1,1.5635399E2,1.08978806E2,1.3696066E2,1.1249367E2],"tree_param":{"num_deleted":"0","num_feature":"41","num_nodes":"15","size_leaf_vector":"1"}},{"base_weights":[-3.766113E-2,-4.9850595E-1,2.9153162E-1,-7.2414225E-1,-2.517416E-1,5.051446E-1,-7.492313E-2,-8.8236205E-2,-3.4960147E-2,-8.110499E-3,-5.5824097E-2,6.661238E-2,8.910908E-3,-3.5082612E-2,2.8510852E-2],"categories":[],"categories_nodes":[],"categories_segments":[],"categories_sizes":[],"default_left":[0,0,0,0,0,0,0,0,0,0,0,0,0,0,0],"id":11,"left_children":[1,3,5,7,9,11,13,-1,-1,-1,-1,-1,-1,-1,-1],"loss_changes":[1.3111691E2,1.9867569E1,3.950819E1,1.0806786E1,9.030288E0,2.1282913E1,1.8631113E1,0E0,0E0,0E0,0E0,0E0,0E0,0E0,0E0],"parents":[2147483647,0,0,1,1,2,2,3,3,4,4,5,5,6,6],"right_children":[2,4,6,8,10,12,14,-1,-1,-1,-1,-1,-1,-1,-1],"split_conditions":[1E0,1E0,-2.6399973E-1,1E0,-5.0805795E-1,1E0,1E0,-8.8236205E-2,-3.4960147E-2,-8.110499E-3,-5.5824097E-2,6.661238E-2,8.910908E-3,-3.5082612E-2,2.8510852E-2],"split_indices":[15,24,37,4,37,27,31,0,0,0,0,0,0,0,0],"split_type":[0,0,0,0,0,0,0,0,0,0,0,0,0,0,0],"sum_hessian":[8.623207E2,3.5909738E2,5.032233E2,1.8656844E2,1.7252893E2,3.1766962E2,1.855537E2,1.3020796E2,5.6360477E1,1.1164032E2,6.088861E1,2.2861073E2,8.9058876E1,1.05064896E2,8.048879E1],"tree_param":{"num_deleted":"0","num_feature":"41","num_nodes":"15","size_leaf_vector":"1"}},{"base_weights":[-3.5105158E-2,-4.6390057E-1,2.5001574E-1,-2.9992655E-1,-8.9549965E-1,5.5963004E-1,2.5643151E-2,-4.0361755E-2,9.327623E-3,-9.5253795E-2,-5.603383E-2,3.249185E-2,9.547967E-2,-3.3303585E-2,2.8224325E-2],"categories":[],"categories_nodes":[],"categories_segments":[],"categories_sizes":[],"default_left":[0,0,0,0,0,0,0,0,0,0,0,0,0,0,0],"id":12,"left_children":[1,3,5,7,9,11,13,-1,-1,-1,-1,-1,-1,-1,-1],"loss_changes":[1.0424217E2,2.382853E1,3.5567276E1,1.01592865E1,1.248764E0,1.9646614E1,2.7523504E1,0E0,0E0,0E0,0E0,0E0,0E0,0E0,0E0],"parents":[2147483647,0,0,1,1,2,2,3,3,4,4,5,5,6,6],"right_children":[2,4,6,8,10,12,14,-1,-1,-1,-1,-1,-1,-1,-1],"split_conditions":[1E0,1E0,-8.741453E-1,8.926125E-1,1E0,3.65423E-1,5.653914E-1,-4.0361755E-2,9.327623E-3,-9.5253795E-2,-5.603383E-2,3.249185E-2,9.547967E-2,-3.3303585E-2,2.8224325E-2],"split_indices":[6,26,37,39,9,39,39,0,0,0,0,0,0,0,0],"split_type":[0,0,0,0,0,0,0,0,0,0,0,0,0,0,0],"sum_hessian":[8.5068854E2,3.39494E2,5.1119455E2,2.4725229E2,9.22417E1,2.1416779E2,2.9702676E2,1.9563513E2,5.161716E1,7.725268E1,1.4989021E1,1.3550565E2,7.866214E1,1.237498E2,1.7327696E2],"tree_param":{"num_deleted":"0","num_feature":"41","num_nodes":"15","size_leaf_vector":"1"}},{"base_weights":[-3.2543924E-2,-4.4732744E-1,2.4918619E-1,-2.9145253E-1,-8.402897E-1,7.91472E-1,1.3718216E-1,-4.1538134E-2,2.6853789E-2,-9.238454E-2,-4.163037E-2,5.004059E-2,1.06449544E-1,-2.7178193E-2,2.8522674E-2],"categories":[],"categories_nodes":[],"categories_segments":[],"categories_sizes":[],"default_left":[0,0,0,0,0,0,0,0,0,0,0,0,0,0,0],"id":13,"left_children":[1,3,5,7,9,11,13,-1,-1,-1,-1,-1,-1,-1,-1],"loss_changes":[9.827327E1,2.0589218E1,3.031419E1,1.7118656E1,3.018814E0,6.264492E0,2.528539E1,0E0,0E0,0E0,0E0,0E0,0E0,0E0,0E0],"parents":[2147483647,0,0,1,1,2,2,3,3,4,4,5,5,6,6],"right_children":[2,4,6,8,10,12,14,-1,-1,-1,-1,-1,-1,-1,-1],"split_conditions":[1E0,1E0,-9.599534E-1,1.0859704E0,1.375181E0,-3.3364022E-1,1E0,-4.1538134E-2,2.6853789E-2,-9.238454E-2,-4.163037E-2,5.004059E-2,1.06449544E-1,-2.7178193E-2,2.8522674E-2],"split_indices":[15,26,40,39,39,39,28,0,0,0,0,0,0,0,0],"split_type":[0,0,0,0,0,0,0,0,0,0,0,0,0,0,0],"sum_hessian":[8.390163E2,3.3913272E2,4.998836E2,2.4406288E2,9.506985E1,8.4533646E1,4.1534995E2,2.0004918E2,4.4013706E1,7.84338E1,1.6636045E1,4.2286007E1,4.2247635E1,1.1017165E2,3.0517828E2],"tree_param":{"num_deleted":"0","num_feature":"41","num_nodes":"15","size_leaf_vector":"1"}},{"base_weights":[-3.00547E-2,-5.3711134E-1,1.7387062E-1,-6.7827374E-1,-1.2638807E-1,-1.9288553E-1,3.1779653E-1,-7.6555096E-2,-2.3843084E-2,3.1390827E-2,-4.283787E-2,-2.6051747E-3,-4.967822E-2,7.724176E-2,2.2610655E-2],"categories":[],"categories_nodes":[],"categories_segments":[],"categories_sizes":[],"default_left":[0,0,0,0,0,0,0,0,0,0,0,0,0,0,0],"id":14,"left_children":[1,3,5,7,9,11,13,-1,-1,-1,-1,-1,-1,-1,-1],"loss_changes":[8.5938515E1,1.3734489E1,3.135494E1,6.6186447E0,8.404786E0,8.489674E0,1.7588627E1,0E0,0E0,0E0,0E0,0E0,0E0,0E0,0E0],"parents":[2147483647,0,0,1,1,2,2,3,3,4,4,5,5,6,6],"right_children":[2,4,6,8,10,12,14,-1,-1,-1,-1,-1,-1,-1,-1],"split_conditions":[1E0,1.1603389E0,1E0,1E0,1.8635836E0,-5.0805795E-1,-1.2402327E0,-7.6555096E-2,-2.3843084E-2,3.1390827E-2,-4.283787E-2,-2.6051747E-3,-4.967822E-2,7.724176E-2,2.2610655E-2],"split_indices":[24,39,15,31,40,37,37,0,0,0,0,0,0,0,0],"split_type":[0,0,0,0,0,0,0,0,0,0,0,0,0,0,0],"sum_hessian":[8.292101E2,2.3736713E2,5.9184296E2,1.761681E2,6.1199013E1,1.6670367E2,4.2513928E2,1.4638141E2,2.9786694E1,2.4882032E1,3.631698E1,1.0832237E2,5.8381306E1,7.01071E1,3.5503217E2],"tree_param":{"num_deleted":"0","num_feature":"41","num_nodes":"15","size_leaf_vector":"1"}},{"base_weights":[-2.7931409E-2,-3.9653695E-1,2.0248832E-1,-2.5428152E-1,-8.281001E-1,4.061651E-1,-1.6421964E-2,2.9368067E-2,-3.272299E-2,-8.9420274E-2,-4.6514638E-2,2.203079E-2,8.085092E-2,-3.6776923E-2,1.9960014E-2],"categories":[],"categories_nodes":[],"categories_segments":[],"categories_sizes":[],"default_left":[0,0,0,0,0,0,0,0,0,0,0,0,0,0,0],"id":15,"left_children":[1,3,5,7,9,11,13,-1,-1,-1,-1,-1,-1,-1,-1],"loss_changes":[6.970478E1,1.9168514E1,2.252698E1,9.643574E0,1.4509583E0,1.9390411E1,1.8623158E1,0E0,0E0,0E0,0E0,0E0,0E0,0E0,0E0],"parents":[2147483647,0,0,1,1,2,2,3,3,4,4,5,5,6,6],"right_children":[2,4,6,8,10,12,14,-1,-1,-1,-1,-1,-1,-1,-1],"split_conditions":[1E0,1E0,-6.300871E-1,-1.2402327E0,1E0,1E0,5.653914E-1,2.9368067E-2,-3.272299E-2,-8.9420274E-2,-4.6514638E-2,2.203079E-2,8.085092E-2,-3.6776923E-2,1.9960014E-2],"split_indices":[6,26,37,37,9,2,39,0,0,0,0,0,0,0,0],"split_type":[0,0,0,0,0,0,0,0,0,0,0,0,0,0,0],"sum_hessian":[8.1874817E2,3.1466052E2,5.0408762E2,2.3784822E2,7.681231E1,2.6068643E2,2.434012E2,2.7588379E1,2.1025984E2,6.3740025E1,1.3072282E1,1.7937447E2,8.131195E1,9.240593E1,1.5099527E2],"tree_param":{"num_deleted":"0","num_feature":"41","num_nodes":"15","size_leaf_vector":"1"}},{"base_weights":[-2.586636E-2,-2.6545385E-1,2.96309E-1,5.2985642E-2,-4.369892E-1,4.7643656E-1,5.176408E-2,2.147775E-2,-2.9459214E-2,-6.4443156E-2,-1.7510805E-2,5.877751E-2,-6.458203E-3,5.789209E-2,-1.0318796E-2],"categories":[],"categories_nodes":[],"categories_segments":[],"categories_sizes":[],"default_left":[0,0,0,0,0,0,0,0,0,0,0,0,0,0,0],"id":16,"left_children":[1,3,5,7,9,11,13,-1,-1,-1,-1,-1,-1,-1,-1],"loss_changes":[6.260099E1,2.5426537E1,1.52131405E1,9.269294E0,1.6312748E1,1.2029644E1,1.21366205E1,0E0,0E0,0E0,0E0,0E0,0E0,0E0,0E0],"parents":[2147483647,0,0,1,1,2,2,3,3,4,4,5,5,6,6],"right_children":[2,4,6,8,10,12,14,-1,-1,-1,-1,-1,-1,-1,-1],"split_conditions":[1E0,-7.9279256E-1,1E0,1E0,1E0,9.5629144E-1,-1.2402327E0,2.147775E-2,-2.9459214E-2,-6.4443156E-2,-1.7510805E-2,5.877751E-2,-6.458203E-3,5.789209E-2,-1.0318796E-2],"split_indices":[31,37,0,5,23,37,37,0,0,0,0,0,0,0,0],"split_type":[0,0,0,0,0,0,0,0,0,0,0,0,0,0,0],"sum_hessian":[8.0898846E2,4.6406213E2,3.449263E2,1.6270552E2,3.013566E2,1.9807755E2,1.4684877E2,1.11285835E2,5.1419685E1,1.67341E2,1.3401561E2,1.6419974E2,3.3877804E1,3.273751E1,1.1411126E2],"tree_param":{"num_deleted":"0","num_feature":"41","num_nodes":"15","size_leaf_vector":"1"}},{"base_weights":[-2.3831569E-2,-4.666104E-1,1.4045107E-1,-5.9298766E-1,-3.9550226E-2,-9.7875044E-2,3.0512995E-1,-7.52751E-2,-2.9460682E-2,2.3352405E-2,-6.0586806E-2,-1.7579084E-2,5.5728424E-2,5.064542E-2,1.19046E-2],"categories":[],"categories_nodes":[],"categories_segments":[],"categories_sizes":[],"default_left":[0,0,0,0,0,0,0,0,0,0,0,0,0,0,0],"id":17,"left_children":[1,3,5,7,9,11,13,-1,-1,-1,-1,-1,-1,-1,-1],"loss_changes":[5.839136E1,1.1700184E1,2.3013386E1,7.7653084E0,7.978071E0,1.2351992E1,1.2922779E1,0E0,0E0,0E0,0E0,0E0,0E0,0E0,0E0],"parents":[2147483647,0,0,1,1,2,2,3,3,4,4,5,5,6,6],"right_children":[2,4,6,8,10,12,14,-1,-1,-1,-1,-1,-1,-1,-1],"split_conditions":[1E0,1.2429705E0,1E0,1E0,1E0,1E0,1E0,-7.52751E-2,-2.9460682E-2,2.3352405E-2,-6.0586806E-2,-1.7579084E-2,5.5728424E-2,5.064542E-2,1.19046E-2],"split_indices":[24,39,4,6,36,34,18,0,0,0,0,0,0,0,0],"split_type":[0,0,0,0,0,0,0,0,0,0,0,0,0,0,0],"sum_hessian":[8.0083014E2,2.162222E2,5.84608E2,1.6654811E2,4.967409E1,2.390526E2,3.4555536E2,1.0747795E2,5.9070156E1,3.3910393E1,1.5763698E1,2.1429851E2,2.4754087E1,1.6515382E2,1.8040155E2],"tree_param":{"num_deleted":"0","num_feature":"41","num_nodes":"15","size_leaf_vector":"1"}},{"base_weights":[-2.2128569E-2,-3.45931E-1,1.7823854E-1,-1.0168417E-1,-5.087963E-1,-3.868534E-2,3.5641834E-1,-2.2830242E-2,4.8325624E-2,-7.083621E-2,-6.6356487E-3,3.378771E-2,-1.7018003E-2,4.3162826E-2,-1.789134E-3],"categories":[],"categories_nodes":[],"categories_segments":[],"categories_sizes":[],"default_left":[0,0,0,0,0,0,0,0,0,0,0,0,0,0,0],"id":18,"left_children":[1,3,5,7,9,11,13,-1,-1,-1,-1,-1,-1,-1,-1],"loss_changes":[5.1549007E1,1.2028976E1,1.8987501E1,9.20113E0,1.6018505E1,1.1063897E1,7.597809E0,0E0,0E0,0E0,0E0,0E0,0E0,0E0,0E0],"parents":[2147483647,0,0,1,1,2,2,3,3,4,4,5,5,6,6],"right_children":[2,4,6,8,10,12,14,-1,-1,-1,-1,-1,-1,-1,-1],"split_conditions":[1E0,-5.0805795E-1,1E0,5.174651E-1,1.1173704E0,-1.0775272E0,1E0,-2.2830242E-2,4.8325624E-2,-7.083621E-2,-6.6356487E-3,3.378771E-2,-1.7018003E-2,4.3162826E-2,-1.789134E-3],"split_indices":[15,37,31,39,39,37,36,0,0,0,0,0,0,0,0],"split_type":[0,0,0,0,0,0,0,0,0,0,0,0,0,0,0],"sum_hessian":[7.9258594E2,3.0269327E2,4.8989267E2,1.2174231E2,1.8095096E2,2.212798E2,2.6861285E2,1.0058009E2,2.1162216E1,1.2428862E2,5.6662346E1,5.6865135E1,1.6441467E2,2.2354326E2,4.5069614E1],"tree_param":{"num_deleted":"0","num_feature":"41","num_nodes":"15","size_leaf_vector":"1"}},{"base_weights":[-2.0449525E-2,-4.173404E-1,1.1881896E-1,-6.6858697E-1,-2.0948933E-1,2.3959288E-1,-1.4494793E-1,-8.515535E-2,-5.4149594E-2,-5.857125E-2,8.988152E-3,1.462707E-3,3.794084E-2,-4.3466415E-2,9.28211E-3],"categories":[],"categories_nodes":[],"categories_segments":[],"categories_sizes":[],"default_left":[0,0,0,0,0,0,0,0,0,0,0,0,0,0,0],"id":19,"left_children":[1,3,5,7,9,11,13,-1,-1,-1,-1,-1,-1,-1,-1],"loss_changes":[4.3430717E1,1.0517551E1,1.8567013E1,1.6768112E0,1.2796009E1,1.2557507E1,1.2669457E1,0E0,0E0,0E0,0E0,0E0,0E0,0E0,0E0],"parents":[2147483647,0,0,1,1,2,2,3,3,4,4,5,5,6,6],"right_children":[2,4,6,8,10,12,14,-1,-1,-1,-1,-1,-1,-1,-1],"split_conditions":[1E0,1E0,1E0,-1.3334824E0,1E0,2.976651E-1,1E0,-8.515535E-2,-5.4149594E-2,-5.857125E-2,8.988152E-3,1.462707E-3,3.794084E-2,-4.3466415E-2,9.28211E-3],"split_indices":[24,23,27,39,25,39,9,0,0,0,0,0,0,0,0],"split_type":[0,0,0,0,0,0,0,0,0,0,0,0,0,0,0],"sum_hessian":[7.8383234E2,2.030834E2,5.807489E2,9.094006E1,1.1214334E2,3.9841418E2,1.8233473E2,3.4939327E1,5.6000732E1,4.926939E1,6.287395E1,1.531299E2,2.452843E2,8.1815865E1,1.00518875E2],"tree_param":{"num_deleted":"0","num_feature":"41","num_nodes":"15","size_leaf_vector":"1"}},{"base_weights":[-1.9176574E-2,-3.043404E-1,1.5015905E-1,-1.8343598E-1,-6.928497E-1,5.570145E-1,6.831721E-2,-2.8308487E-2,2.1409934E-2,-7.982167E-2,-2.72371E-2,3.0495731E-2,8.218363E-2,-1.2355878E-2,2.6567433E-2],"categories":[],"categories_nodes":[],"categories_segments":[],"categories_sizes":[],"default_left":[0,0,0,0,0,0,0,0,0,0,0,0,0,0,0],"id":20,"left_children":[1,3,5,7,9,11,13,-1,-1,-1,-1,-1,-1,-1,-1],"loss_changes":[3.7572063E1,1.3488842E1,1.6219915E1,8.872044E0,2.814701E0,5.1981106E0,1.546903E1,0E0,0E0,0E0,0E0,0E0,0E0,0E0,0E0],"parents":[2147483647,0,0,1,1,2,2,3,3,4,4,5,5,6,6],"right_children":[2,4,6,8,10,12,14,-1,-1,-1,-1,-1,-1,-1,-1],"split_conditions":[1E0,1E0,-9.599534E-1,1.0859704E0,1.375181E0,-3.3364022E-1,5.653914E-1,-2.8308487E-2,2.1409934E-2,-7.982167E-2,-2.72371E-2,3.0495731E-2,8.218363E-2,-1.2355878E-2,2.6567433E-2],"split_indices":[15,26,40,39,39,39,39,0,0,0,0,0,0,0,0],"split_type":[0,0,0,0,0,0,0,0,0,0,0,0,0,0,0],"sum_hessian":[7.761301E2,2.8887048E2,4.8725964E2,2.214326E2,6.743787E1,8.062874E1,4.0663092E2,1.7728185E2,4.415076E1,5.3206573E1,1.4231291E1,4.2412296E1,3.8216442E1,2.063681E2,2.0026282E2],"tree_param":{"num_deleted":"0","num_feature":"41","num_nodes":"15","size_leaf_vector":"1"}},{"base_weights":[-1.760534E-2,5.3448167E-2,-6.228288E-1,1.7354274E-1,-1.9710085E-1,-8.058061E-1,-4.4771641E-1,3.1323336E-2,-4.426525E-3,1.8397917E-3,-3.7292454E-2,-8.614641E-2,-1.9489212E-2,-1.7492928E-2,-9.076511E-2],"categories":[],"categories_nodes":[],"categories_segments":[],"categories_sizes":[],"default_left":[0,0,0,0,0,0,0,0,0,0,0,0,0,0,0],"id":21,"left_children":[1,3,5,7,9,11,13,-1,-1,-1,-1,-1,-1,-1,-1],"loss_changes":[3.314418E1,2.0795622E1,2.2338219E0,1.4221209E1,8.495511E0,1.136034E0,5.314904E0,0E0,0E0,0E0,0E0,0E0,0E0,0E0,0E0],"parents":[2147483647,0,0,1,1,2,2,3,3,4,4,5,5,6,6],"right_children":[2,4,6,8,10,12,14,-1,-1,-1,-1,-1,-1,-1,-1],"split_conditions":[1E0,1E0,9.4739383E-1,-2.6399973E-1,-9.148217E-1,1E0,1.6071134E0,3.1323336E-2,-4.426525E-3,1.8397917E-3,-3.7292454E-2,-8.614641E-2,-1.9489212E-2,-1.7492928E-2,-9.076511E-2],"split_indices":[26,27,40,37,37,31,37,0,0,0,0,0,0,0,0],"split_type":[0,0,0,0,0,0,0,0,0,0,0,0,0,0,0],"sum_hessian":[7.6896265E2,6.8898694E2,7.997569E1,4.659517E2,2.2303526E2,3.7348293E1,4.26274E1,2.8361673E2,1.8233498E2,1.00613464E2,1.2242179E2,3.3853878E1,3.4944177E0,2.7623966E1,1.5003432E1],"tree_param":{"num_deleted":"0","num_feature":"41","num_nodes":"15","size_leaf_vector":"1"}},{"base_weights":[-1.6544204E-2,4.8190355E-2,-5.9454215E-1,4.4785404E-1,-1.415637E-2,-7.541547E-1,-3.4976074E-1,-5.70935E-2,4.9212407E-2,-1.8585999E-2,2.138778E-2,-7.794893E-2,-2.8220162E-2,-1.2494703E-2,-9.7604536E-2],"categories":[],"categories_nodes":[],"categories_segments":[],"categories_sizes":[],"default_left":[0,0,0,0,0,0,0,0,0,0,0,0,0,0,0],"id":22,"left_children":[1,3,5,7,9,11,13,-1,-1,-1,-1,-1,-1,-1,-1],"loss_changes":[2.859762E1,1.7138859E1,2.7437344E0,4.4670963E0,2.3365862E1,3.268013E-1,4.418399E0,0E0,0E0,0E0,0E0,0E0,0E0,0E0,0E0],"parents":[2147483647,0,0,1,1,2,2,3,3,4,4,5,5,6,6],"right_children":[2,4,6,8,10,12,14,-1,-1,-1,-1,-1,-1,-1,-1],"split_conditions":[1E0,-1.2402327E0,1E0,-9.977337E-1,1E0,1E0,2.4039454E0,-5.70935E-2,4.9212407E-2,-1.8585999E-2,2.138778E-2,-7.794893E-2,-2.8220162E-2,-1.2494703E-2,-9.7604536E-2],"split_indices":[26,37,4,40,23,34,40,0,0,0,0,0,0,0,0],"split_type":[0,0,0,0,0,0,0,0,0,0,0,0,0,0,0],"sum_hessian":[7.625406E2,6.8656354E2,7.597706E1,9.181499E1,5.9474854E2,4.4729637E1,3.1247421E1,3.32812E0,8.848687E1,3.3938538E2,2.5536314E2,4.183244E1,2.8971996E0,2.3876219E1,7.371202E0],"tree_param":{"num_deleted":"0","num_feature":"41","num_nodes":"15","size_leaf_vector":"1"}},{"base_weights":[-1.5495757E-2,-2.687034E-1,1.2538329E-1,3.8526762E-1,-3.2371515E-1,2.1761149E-1,-1.407379E-1,-5.3935178E-2,5.782506E-2,-6.508717E-2,-1.787802E-2,1.7350173E-3,4.2138003E-2,2.4810044E-2,-3.6993906E-2],"categories":[],"categories_nodes":[],"categories_segments":[],"categories_sizes":[],"default_left":[0,0,0,0,0,0,0,0,0,0,0,0,0,0,0],"id":23,"left_children":[1,3,5,7,9,11,13,-1,-1,-1,-1,-1,-1,-1,-1],"loss_changes":[2.7096199E1,9.893097E0,1.2011268E1,4.1526814E0,1.1785133E1,1.4801296E1,1.13423395E1,0E0,0E0,0E0,0E0,0E0,0E0,0E0,0E0],"parents":[2147483647,0,0,1,1,2,2,3,3,4,4,5,5,6,6],"right_children":[2,4,6,8,10,12,14,-1,-1,-1,-1,-1,-1,-1,-1],"split_conditions":[1E0,-9.9540675E-1,1E0,-1.5003982E0,-1.1632613E0,1E0,-8.510029E-1,-5.3935178E-2,5.782506E-2,-6.508717E-2,-1.787802E-2,1.7350173E-3,4.2138003E-2,2.4810044E-2,-3.6993906E-2],"split_indices":[6,40,27,39,39,2,40,0,0,0,0,0,0,0,0],"split_type":[0,0,0,0,0,0,0,0,0,0,0,0,0,0,0],"sum_hessian":[7.576558E2,2.7052426E2,4.871316E2,2.052484E1,2.4999942E2,3.6189417E2,1.2523744E2,3.2342227E0,1.7290617E1,7.567965E1,1.7431976E2,1.8306508E2,1.7882907E2,4.641397E1,7.882347E1],"tree_param":{"num_deleted":"0","num_feature":"41","num_nodes":"15","size_leaf_vector":"1"}},{"base_weights":[-1.4350576E-2,-1.802838E-1,1.9111633E-1,-4.3187693E-1,-5.490396E-2,-3.0005721E-2,3.1874573E-1,-6.7850016E-2,-2.1479925E-2,-1.3043356E-2,3.507394E-2,8.647892E-3,-4.110765E-2,3.3805266E-2,-7.6057024E-2],"categories":[],"categories_nodes":[],"categories_segments":[],"categories_sizes":[],"default_left":[0,0,0,0,0,0,0,0,0,0,0,0,0,0,0],"id":24,"left_children":[1,3,5,7,9,11,13,-1,-1,-1,-1,-1,-1,-1,-1],"loss_changes":[2.5724586E1,1.3142268E1,9.524172E0,7.2782536E0,8.615325E0,5.552797E0,4.713274E0,0E0,0E0,0E0,0E0,0E0,0E0,0E0,0E0],"parents":[2147483647,0,0,1,1,2,2,3,3,4,4,5,5,6,6],"right_children":[2,4,6,8,10,12,14,-1,-1,-1,-1,-1,-1,-1,-1],"split_conditions":[1E0,1E0,1E0,1E0,1E0,1E0,1.8635836E0,-6.7850016E-2,-2.1479925E-2,-1.3043356E-2,3.507394E-2,8.647892E-3,-4.110765E-2,3.3805266E-2,-7.6057024E-2],"split_indices":[31,24,9,23,34,36,40,0,0,0,0,0,0,0,0],"split_type":[0,0,0,0,0,0,0,0,0,0,0,0,0,0,0],"sum_hessian":[7.525136E2,4.1637527E2,3.3613834E2,1.3767186E2,2.7870343E2,1.2329342E2,2.1284492E2,6.345483E1,7.4217026E1,2.3552737E2,4.317605E1,9.50208E1,2.8272621E1,2.0977916E2,3.0657647E0],"tree_param":{"num_deleted":"0","num_feature":"41","num_nodes":"15","size_leaf_vector":"1"}},{"base_weights":[-1.341849E-2,4.038994E-2,-5.378015E-1,1.7663452E-1,-1.0383743E-1,-6.897698E-1,-1.3438539E-1,4.0194236E-2,-4.921391E-3,2.8839646E-2,-2.0901129E-2,-7.206514E-2,-2.4140252E-2,3.3421222E-2,-9.52924E-2],"categories":[],"categories_nodes":[],"categories_segments":[],"categories_sizes":[],"default_left":[0,0,0,0,0,0,0,0,0,0,0,0,0,0,0],"id":25,"left_children":[1,3,5,7,9,11,13,-1,-1,-1,-1,-1,-1,-1,-1],"loss_changes":[2.1121185E1,1.3363126E1,4.177946E0,1.7808983E1,1.36952915E1,5.233002E-1,8.106001E0,0E0,0E0,0E0,0E0,0E0,0E0,0E0,0E0],"parents":[2147483647,0,0,1,1,2,2,3,3,4,4,5,5,6,6],"right_children":[2,4,6,8,10,12,14,-1,-1,-1,-1,-1,-1,-1,-1],"split_conditions":[1E0,1E0,1.2661072E0,-2.2332336E-1,-1.2402327E0,1.8635836E0,2.4039454E0,4.0194236E-2,-4.921391E-3,2.8839646E-2,-2.0901129E-2,-7.206514E-2,-2.4140252E-2,3.3421222E-2,-9.52924E-2],"split_indices":[26,0,39,37,37,40,40,0,0,0,0,0,0,0,0],"split_type":[0,0,0,0,0,0,0,0,0,0,0,0,0,0,0],"sum_hessian":[7.467776E2,6.7811707E2,6.8660545E1,3.4859326E2,3.295238E2,4.935755E1,1.9302992E1,1.7411517E2,1.744781E2,6.9307465E1,2.6021634E2,4.560893E1,3.7486222E0,1.2651784E1,6.651207E0],"tree_param":{"num_deleted":"0","num_feature":"41","num_nodes":"15","size_leaf_vector":"1"}},{"base_weights":[-1.2519035E-2,-1.5981077E-1,1.6687432E-1,5.0156735E-2,-2.8789166E-1,3.073695E-1,-2.8257376E-2,-8.183876E-3,3.6274433E-2,-4.7464006E-2,-8.279369E-3,3.9449736E-2,-9.50746E-3,1.0212447E-2,-3.526918E-2],"categories":[],"categories_nodes":[],"categories_segments":[],"categories_sizes":[],"default_left":[0,0,0,0,0,0,0,0,0,0,0,0,0,0,0],"id":26,"left_children":[1,3,5,7,9,11,13,-1,-1,-1,-1,-1,-1,-1,-1],"loss_changes":[1.9653988E1,1.0997749E1,9.203615E0,6.449416E0,9.682404E0,6.8778896E0,6.0136833E0,0E0,0E0,0E0,0E0,0E0,0E0,0E0,0E0],"parents":[2147483647,0,0,1,1,2,2,3,3,4,4,5,5,6,6],"right_children":[2,4,6,8,10,12,14,-1,-1,-1,-1,-1,-1,-1,-1],"split_conditions":[1E0,-7.9279256E-1,1E0,1E0,1E0,1E0,-5.894107E-1,-8.183876E-3,3.6274433E-2,-4.7464006E-2,-8.279369E-3,3.9449736E-2,-9.50746E-3,1.0212447E-2,-3.526918E-2],"split_indices":[31,37,0,4,23,36,37,0,0,0,0,0,0,0,0],"split_type":[0,0,0,0,0,0,0,0,0,0,0,0,0,0,0],"sum_hessian":[7.418075E2,4.0741046E2,3.3439703E2,1.5459152E2,2.5281892E2,1.9408228E2,1.4031477E2,1.0921275E2,4.5378773E1,1.3164114E2,1.2117778E2,1.5955817E2,3.4524097E1,1.0057963E2,3.973514E1],"tree_param":{"num_deleted":"0","num_feature":"41","num_nodes":"15","size_leaf_vector":"1"}},{"base_weights":[-1.1526844E-2,-1.8182491E-1,1.3129634E-1,-1.1205018E-1,-5.778042E-1,5.0410066E-2,4.13443E-1,1.2583212E-3,-3.311352E-2,-7.296257E-2,-3.0725388E-2,2.7352734E-2,-1.3525739E-2,8.4697604E-2,2.8321713E-2],"categories":[],"categories_nodes":[],"categories_segments":[],"categories_sizes":[],"default_left":[0,0,0,0,0,0,0,0,0,0,0,0,0,0,0],"id":27,"left_children":[1,3,5,7,9,11,13,-1,-1,-1,-1,-1,-1,-1,-1],"loss_changes":[1.795963E1,9.240104E0,9.1453E0,7.856146E0,1.8382778E0,1.301525E1,4.804534E0,0E0,0E0,0E0,0E0,0E0,0E0,0E0,0E0],"parents":[2147483647,0,0,1,1,2,2,3,3,4,4,5,5,6,6],"right_children":[2,4,6,8,10,12,14,-1,-1,-1,-1,-1,-1,-1,-1],"split_conditions":[1E0,1E0,8.926125E-1,1E0,9.5375985E-1,-8.0665874E-1,-4.6380383E-1,1.2583212E-3,-3.311352E-2,-7.296257E-2,-3.0725388E-2,2.7352734E-2,-1.3525739E-2,8.4697604E-2,2.8321713E-2],"split_indices":[9,26,39,27,39,40,40,0,0,0,0,0,0,0,0],"split_type":[0,0,0,0,0,0,0,0,0,0,0,0,0,0,0],"sum_hessian":[7.364138E2,3.3577396E2,4.0063986E2,2.8656235E2,4.9211613E1,3.1229056E2,8.8349304E1,1.8325471E2,1.0330764E2,3.0435612E1,1.8776E1,1.4162547E2,1.7066507E2,1.913693E1,6.921238E1],"tree_param":{"num_deleted":"0","num_feature":"41","num_nodes":"15","size_leaf_vector":"1"}},{"base_weights":[-1.058816E-2,-2.0978047E-1,9.832809E-2,3.543085E-1,-2.6039827E-1,1.7757383E-1,-1.2063491E-1,8.9183055E-2,3.6491025E-3,-5.280155E-2,-1.437639E-2,2.6627589E-2,-9.884859E-3,-4.071627E-2,1.6946845E-3],"categories":[],"categories_nodes":[],"categories_segments":[],"categories_sizes":[],"default_left":[0,0,0,0,0,0,0,0,0,0,0,0,0,0,0],"id":28,"left_children":[1,3,5,7,9,11,13,-1,-1,-1,-1,-1,-1,-1,-1],"loss_changes":[1.5905565E1,7.491642E0,8.246876E0,3.6852958E0,7.3648243E0,8.570594E0,4.996256E0,0E0,0E0,0E0,0E0,0E0,0E0,0E0,0E0],"parents":[2147483647,0,0,1,1,2,2,3,3,4,4,5,5,6,6],"right_children":[2,4,6,8,10,12,14,-1,-1,-1,-1,-1,-1,-1,-1],"split_conditions":[1E0,-9.9540675E-1,1E0,1E0,-9.2528236E-1,4.466562E-1,1E0,8.9183055E-2,3.6491025E-3,-5.280155E-2,-1.437639E-2,2.6627589E-2,-9.884859E-3,-4.071627E-2,1.6946845E-3],"split_indices":[15,40,27,27,39,40,9,0,0,0,0,0,0,0,0],"split_type":[0,0,0,0,0,0,0,0,0,0,0,0,0,0,0],"sum_hessian":[7.311841E2,2.581459E2,4.7303815E2,2.0762892E1,2.3738303E2,3.474722E2,1.25565956E2,7.043749E0,1.3719143E1,7.098381E1,1.6639922E2,2.630863E2,8.4385895E1,4.009814E1,8.546782E1],"tree_param":{"num_deleted":"0","num_feature":"41","num_nodes":"15","size_leaf_vector":"1"}},{"base_weights":[-9.728673E-3,3.2620877E-2,-4.6536428E-1,-8.915971E-2,1.6128777E-1,-6.2104344E-1,-9.769845E-2,2.5602961E-2,-1.8794416E-2,3.7828352E-2,2.4569912E-3,-6.5407075E-2,-1.9241387E-2,3.2854747E-2,-9.2724465E-2],"categories":[],"categories_nodes":[],"categories_segments":[],"categories_sizes":[],"default_left":[0,0,0,0,0,0,0,0,0,0,0,0,0,0,0],"id":29,"left_children":[1,3,5,7,9,11,13,-1,-1,-1,-1,-1,-1,-1,-1],"loss_changes":[1.4054643E1,1.0460125E1,3.4846792E0,1.1748674E1,9.618106E0,4.8752785E-1,7.2393146E0,0E0,0E0,0E0,0E0,0E0,0E0,0E0,0E0],"parents":[2147483647,0,0,1,1,2,2,3,3,4,4,5,5,6,6],"right_children":[2,4,6,8,10,12,14,-1,-1,-1,-1,-1,-1,-1,-1],"split_conditions":[1E0,4.067388E-1,1.2661072E0,-1.2402327E0,-5.0805795E-1,1.8635836E0,2.4039454E0,2.5602961E-2,-1.8794416E-2,3.7828352E-2,2.4569912E-3,-6.5407075E-2,-1.9241387E-2,3.2854747E-2,-9.2724465E-2],"split_indices":[26,39,39,37,37,40,40,0,0,0,0,0,0,0,0],"split_type":[0,0,0,0,0,0,0,0,0,0,0,0,0,0,0],"sum_hessian":[7.2658545E2,6.656448E2,6.0940678E1,3.421314E2,3.2351334E2,4.2328537E1,1.861214E1,7.577029E1,2.6636115E2,1.2436187E2,1.9915147E2,3.881199E1,3.5165448E0,1.2693685E1,5.918456E0],"tree_param":{"num_deleted":"0","num_feature":"41","num_nodes":"15","size_leaf_vector":"1"}},{"base_weights":[-9.091618E-3,-1.8762077E-1,8.416972E-2,-1.4049104E-1,-8.510719E-1,-3.3466212E-2,2.2056307E-1,3.798271E-2,-1.782628E-2,-8.9739054E-2,-1.8487694E-2,3.221267E-2,-1.2638643E-2,3.2703258E-2,-2.0066699E-2],"categories":[],"categories_nodes":[],"categories_segments":[],"categories_sizes":[],"default_left":[0,0,0,0,0,0,0,0,0,0,0,0,0,0,0],"id":30,"left_children":[1,3,5,7,9,11,13,-1,-1,-1,-1,-1,-1,-1,-1],"loss_changes":[1.2042626E1,7.640297E0,7.631331E0,4.64513E0,3.3590412E-1,8.499246E0,9.939955E0,0E0,0E0,0E0,0E0,0E0,0E0,0E0,0E0],"parents":[2147483647,0,0,1,1,2,2,3,3,4,4,5,5,6,6],"right_children":[2,4,6,8,10,12,14,-1,-1,-1,-1,-1,-1,-1,-1],"split_conditions":[1E0,1.566437E0,1E0,-9.973825E-1,2.6519654E0,-9.7071016E-1,1E0,3.798271E-2,-1.782628E-2,-8.9739054E-2,-1.8487694E-2,3.221267E-2,-1.2638643E-2,3.2703258E-2,-2.0066699E-2],"split_indices":[6,37,2,40,40,40,27,0,0,0,0,0,0,0,0],"split_type":[0,0,0,0,0,0,0,0,0,0,0,0,0,0,0],"sum_hessian":[7.213382E2,2.4717055E2,4.7416763E2,2.3190819E2,1.5262359E1,2.5499516E2,2.1917247E2,1.508274E1,2.1682545E2,1.3945714E1,1.3166447E0,5.231731E1,2.0267784E2,1.7513039E2,4.4042076E1],"tree_param":{"num_deleted":"0","num_feature":"41","num_nodes":"15","size_leaf_vector":"1"}},{"base_weights":[-8.406853E-3,-1.4826342E-1,1.06120214E-1,-5.4952968E-2,-3.923129E-1,2.7184728E-1,-1.4892456E-2,-2.9526252E-2,6.8718935E-3,3.8053397E-2,-4.6358727E-2,3.691213E-2,-6.533065E-3,1.9085502E-2,-2.1908864E-2],"categories":[],"categories_nodes":[],"categories_segments":[],"categories_sizes":[],"default_left":[0,0,0,0,0,0,0,0,0,0,0,0,0,0,0],"id":31,"left_children":[1,3,5,7,9,11,13,-1,-1,-1,-1,-1,-1,-1,-1],"loss_changes":[1.1527545E1,7.356455E0,7.940213E0,7.020436E0,5.1036606E0,5.503358E0,9.690556E0,0E0,0E0,0E0,0E0,0E0,0E0,0E0,0E0],"parents":[2147483647,0,0,1,1,2,2,3,3,4,4,5,5,6,6],"right_children":[2,4,6,8,10,12,14,-1,-1,-1,-1,-1,-1,-1,-1],"split_conditions":[1E0,1E0,1E0,1E0,-1.2402327E0,4.6817496E-1,-8.0665874E-1,-2.9526252E-2,6.8718935E-3,3.8053397E-2,-4.6358727E-2,3.691213E-2,-6.533065E-3,1.9085502E-2,-2.1908864E-2],"split_indices":[9,36,18,28,37,37,40,0,0,0,0,0,0,0,0],"split_type":[0,0,0,0,0,0,0,0,0,0,0,0,0,0,0],"sum_hessian":[7.1770825E2,3.2298965E2,3.947186E2,2.3454018E2,8.844948E1,1.6605693E2,2.2866167E2,7.921953E1,1.5532065E2,7.1019664E0,8.134751E1,1.2880316E2,3.725376E1,1.1393073E2,1.14730934E2],"tree_param":{"num_deleted":"0","num_feature":"41","num_nodes":"15","size_leaf_vector":"1"}},{"base_weights":[-7.728587E-3,-1.2094402E-1,1.2595852E-1,-7.353616E-2,-4.578923E-1,2.5130796E-1,-4.9448717E-2,-1.9009788E-2,5.6390637E-3,-6.9732524E-2,-7.4305087E-3,3.544646E-2,4.2558564E-3,1.1430624E-3,-5.4045994E-2],"categories":[],"categories_nodes":[],"categories_segments":[],"categories_sizes":[],"default_left":[0,0,0,0,0,0,0,0,0,0,0,0,0,0,0],"id":32,"left_children":[1,3,5,7,9,11,13,-1,-1,-1,-1,-1,-1,-1,-1],"loss_changes":[1.0833063E1,6.156386E0,7.22921E0,5.173521E0,4.320422E0,4.110647E0,4.1203914E0,0E0,0E0,0E0,0E0,0E0,0E0,0E0,0E0],"parents":[2147483647,0,0,1,1,2,2,3,3,4,4,5,5,6,6],"right_children":[2,4,6,8,10,12,14,-1,-1,-1,-1,-1,-1,-1,-1],"split_conditions":[1E0,1E0,1E0,1.9520192E-1,9.5375985E-1,4.466562E-1,3.341494E-1,-1.9009788E-2,5.6390637E-3,-6.9732524E-2,-7.4305087E-3,3.544646E-2,4.2558564E-3,1.1430624E-3,-5.4045994E-2],"split_indices":[31,26,0,39,39,40,40,0,0,0,0,0,0,0,0],"split_type":[0,0,0,0,0,0,0,0,0,0,0,0,0,0,0],"sum_hessian":[7.137348E2,3.865083E2,3.272265E2,3.3990295E2,4.6605347E1,1.9059259E2,1.3663393E2,1.7892245E2,1.609805E2,2.8190865E1,1.841448E1,1.27090744E2,6.3501842E1,1.2243074E2,1.4203184E1],"tree_param":{"num_deleted":"0","num_feature":"41","num_nodes":"15","size_leaf_vector":"1"}},{"base_weights":[-7.2553055E-3,4.258468E-2,-2.786183E-1,1.6880661E-1,-7.4710414E-2,-4.8969716E-1,-6.510275E-2,1.3242852E-3,3.411968E-2,1.789783E-2,-1.4563012E-2,-6.735193E-2,-2.849538E-2,-3.3251878E-2,6.1004322E-2],"categories":[],"categories_nodes":[],"categories_segments":[],"categories_sizes":[],"default_left":[0,0,0,0,0,0,0,0,0,0,0,0,0,0,0],"id":33,"left_children":[1,3,5,7,9,11,13,-1,-1,-1,-1,-1,-1,-1,-1],"loss_changes":[9.630243E0,8.920721E0,4.9474077E0,7.775882E0,5.6495905E0,1.8933163E0,1.0327354E1,0E0,0E0,0E0,0E0,0E0,0E0,0E0,0E0],"parents":[2147483647,0,0,1,1,2,2,3,3,4,4,5,5,6,6],"right_children":[2,4,6,8,10,12,14,-1,-1,-1,-1,-1,-1,-1,-1],"split_conditions":[9.15615E-1,1E0,1E0,1E0,-1.2402327E0,1.6455508E0,2.0042775E0,1.3242852E-3,3.411968E-2,1.789783E-2,-1.4563012E-2,-6.735193E-2,-2.849538E-2,-3.3251878E-2,6.1004322E-2],"split_indices":[37,0,33,23,37,40,40,0,0,0,0,0,0,0,0],"split_type":[0,0,0,0,0,0,0,0,0,0,0,0,0,0,0],"sum_hessian":[7.101698E2,6.006874E2,1.0948239E2,2.8912216E2,3.1156522E2,5.4404892E1,5.50775E1,1.5254416E2,1.36578E2,6.773717E1,2.4382803E2,2.7460663E1,2.694423E1,3.9814865E1,1.5262633E1],"tree_param":{"num_deleted":"0","num_feature":"41","num_nodes":"15","size_leaf_vector":"1"}},{"base_weights":[-6.727632E-3,-1.5975125E-1,7.395569E-2,2.7227917E-1,-2.0240399E-1,1.9754435E-1,-1.943437E-2,-5.654343E-2,4.4630155E-2,-4.9194805E-2,-1.2812129E-2,3.4499712E-2,-3.5762347E-3,1.5353029E-2,-1.3926177E-2],"categories":[],"categories_nodes":[],"categories_segments":[],"categories_sizes":[],"default_left":[0,0,0,0,0,0,0,0,0,0,0,0,0,0,0],"id":34,"left_children":[1,3,5,7,9,11,13,-1,-1,-1,-1,-1,-1,-1,-1],"loss_changes":[8.762317E0,4.5697737E0,5.3679295E0,3.5237954E0,4.745283E0,6.8968773E0,5.5267043E0,0E0,0E0,0E0,0E0,0E0,0E0,0E0,0E0],"parents":[2147483647,0,0,1,1,2,2,3,3,4,4,5,5,6,6],"right_children":[2,4,6,8,10,12,14,-1,-1,-1,-1,-1,-1,-1,-1],"split_conditions":[1E0,-9.9540675E-1,1E0,-1.5003982E0,-1.4508193E0,3.572215E-1,-8.5640323E-1,-5.654343E-2,4.4630155E-2,-4.9194805E-2,-1.2812129E-2,3.4499712E-2,-3.5762347E-3,1.5353029E-2,-1.3926177E-2],"split_indices":[15,40,21,39,39,40,40,0,0,0,0,0,0,0,0],"split_type":[0,0,0,0,0,0,0,0,0,0,0,0,0,0,0],"sum_hessian":[7.077461E2,2.4399892E2,4.637472E2,2.1440813E1,2.225581E2,1.9912195E2,2.6462524E2,3.3010287E0,1.8139786E1,4.4291824E1,1.7826628E2,1.2171672E2,7.7405235E1,1.081848E2,1.5644043E2],"tree_param":{"num_deleted":"0","num_feature":"41","num_nodes":"15","size_leaf_vector":"1"}},{"base_weights":[-6.228184E-3,5.23564E-2,-2.0391656E-1,1.2843242E-1,-1.2713964E-1,-1.0755817E-1,-5.1804924E-1,2.4962848E-2,-4.090519E-3,2.7483718E-3,-2.6293376E-2,-1.4749697E-2,9.469357E-2,-9.043102E-2,-2.7335435E-2],"categories":[],"categories_nodes":[],"categories_segments":[],"categories_sizes":[],"default_left":[0,0,0,0,0,0,0,0,0,0,0,0,0,0,0],"id":35,"left_children":[1,3,5,7,9,11,13,-1,-1,-1,-1,-1,-1,-1,-1],"loss_changes":[8.176319E0,7.4540834E0,4.829219E0,7.8713784E0,3.4220915E0,5.394038E0,3.3085747E0,0E0,0E0,0E0,0E0,0E0,0E0,0E0,0E0],"parents":[2147483647,0,0,1,1,2,2,3,3,4,4,5,5,6,6],"right_children":[2,4,6,8,10,12,14,-1,-1,-1,-1,-1,-1,-1,-1],"split_conditions":[1E0,1E0,7.9358596E-1,1E0,-9.148217E-1,1.0197494E0,1.184701E0,2.4962848E-2,-4.090519E-3,2.7483718E-3,-2.6293376E-2,-1.4749697E-2,9.469357E-2,-9.043102E-2,-2.7335435E-2],"split_indices":[36,27,37,0,37,40,40,0,0,0,0,0,0,0,0],"split_type":[0,0,0,0,0,0,0,0,0,0,0,0,0,0,0],"sum_hessian":[7.040597E2,5.436772E2,1.6038255E2,3.8204083E2,1.6163632E2,1.2376175E2,3.6620808E1,2.2239621E2,1.596446E2,7.5951256E1,8.5685074E1,1.2007409E2,3.6876628E0,1.3156719E1,2.3464087E1],"tree_param":{"num_deleted":"0","num_feature":"41","num_nodes":"15","size_leaf_vector":"1"}},{"base_weights":[-5.8030323E-3,2.3715416E-2,-3.6521602E-1,-6.355317E-2,1.5256537E-1,-4.8930785E-1,7.317917E-3,-1.1908963E-2,1.972938E-2,2.1973737E-2,-9.702819E-3,-5.468112E-2,-1.6724886E-2,7.874601E-2,-6.1710488E-2],"categories":[],"categories_nodes":[],"categories_segments":[],"categories_sizes":[],"default_left":[0,0,0,0,0,0,0,0,0,0,0,0,0,0,0],"id":36,"left_children":[1,3,5,7,9,11,13,-1,-1,-1,-1,-1,-1,-1,-1],"loss_changes":[7.463745E0,7.322026E0,2.4718404E0,5.6502743E0,4.428768E0,6.505518E-1,7.464934E0,0E0,0E0,0E0,0E0,0E0,0E0,0E0,0E0],"parents":[2147483647,0,0,1,1,2,2,3,3,4,4,5,5,6,6],"right_children":[2,4,6,8,10,12,14,-1,-1,-1,-1,-1,-1,-1,-1],"split_conditions":[1E0,1E0,1.3520441E0,1E0,1E0,1E0,1.4925178E0,-1.1908963E-2,1.972938E-2,2.1973737E-2,-9.702819E-3,-5.468112E-2,-1.6724886E-2,7.874601E-2,-6.1710488E-2],"split_indices":[26,20,39,34,36,31,39,0,0,0,0,0,0,0,0],"split_type":[0,0,0,0,0,0,0,0,0,0,0,0,0,0,0],"sum_hessian":[7.016924E2,6.492997E2,5.2392708E1,3.8741486E2,2.6188483E2,3.9066216E1,1.3326493E1,3.198579E2,6.755693E1,2.0644487E2,5.5439957E1,3.2555584E1,6.510631E0,5.8084383E0,7.518055E0],"tree_param":{"num_deleted":"0","num_feature":"41","num_nodes":"15","size_leaf_vector":"1"}},{"base_weights":[-5.4063546E-3,8.1992835E-2,-1.3133438E-1,3.6285266E-2,6.88005E-1,-3.6494902E-1,-3.3441544E-2,1.8818371E-2,-5.37442E-3,8.014028E-2,-7.368929E-2,-4.467414E-2,-1.4885548E-2,1.340467E-4,-6.638958E-2],"categories":[],"categories_nodes":[],"categories_segments":[],"categories_sizes":[],"default_left":[0,0,0,0,0,0,0,0,0,0,0,0,0,0,0],"id":37,"left_children":[1,3,5,7,9,11,13,-1,-1,-1,-1,-1,-1,-1,-1],"loss_changes":[7.7204323E0,1.1445932E1,6.5598183E0,5.290617E0,5.274474E0,1.4316092E0,4.465849E0,0E0,0E0,0E0,0E0,0E0,0E0,0E0,0E0],"parents":[2147483647,0,0,1,1,2,2,3,3,4,4,5,5,6,6],"right_children":[2,4,6,8,10,12,14,-1,-1,-1,-1,-1,-1,-1,-1],"split_conditions":[-2.6399973E-1,1.0859704E0,1E0,1E0,1.3933599E0,1E0,1.6071134E0,1.8818371E-2,-5.37442E-3,8.014028E-2,-7.368929E-2,-4.467414E-2,-1.4885548E-2,1.340467E-4,-6.638958E-2],"split_indices":[37,39,4,0,39,31,37,0,0,0,0,0,0,0,0],"split_type":[0,0,0,0,0,0,0,0,0,0,0,0,0,0,0],"sum_hessian":[6.99496E2,4.1312158E2,2.8637436E2,3.8513336E2,2.7988237E1,8.375962E1,2.0261473E2,1.4291528E2,2.4221808E2,2.6330359E1,1.65788E0,5.9986942E1,2.377268E1,1.9296667E2,9.648052E0],"tree_param":{"num_deleted":"0","num_feature":"41","num_nodes":"15","size_leaf_vector":"1"}},{"base_weights":[-5.1144757E-3,1.1970997E-2,-5.599531E-1,-3.0849049E-2,2.1439204E-1,-7.9394054E-1,-1.2801372E-1,5.6227255E-3,-1.9537766E-2,6.0565706E-2,8.624793E-3,-8.489569E-2,-1.1486336E-2,-8.249182E-2,1.8452296E-2],"categories":[],"categories_nodes":[],"categories_segments":[],"categories_sizes":[],"default_left":[0,0,0,0,0,0,0,0,0,0,0,0,0,0,0],"id":38,"left_children":[1,3,5,7,9,11,13,-1,-1,-1,-1,-1,-1,-1,-1],"loss_changes":[6.614751E0,5.8766246E0,2.005147E0,8.031801E0,5.8827715E0,4.0044403E-1,2.0072029E0,0E0,0E0,0E0,0E0,0E0,0E0,0E0,0E0],"parents":[2147483647,0,0,1,1,2,2,3,3,4,4,5,5,6,6],"right_children":[2,4,6,8,10,12,14,-1,-1,-1,-1,-1,-1,-1,-1],"split_conditions":[1.566437E0,1.1024967E0,1E0,-3.8602886E-1,1.1735599E0,2.6519654E0,1E0,5.6227255E-3,-1.9537766E-2,6.0565706E-2,8.624793E-3,-8.489569E-2,-1.1486336E-2,-8.249182E-2,1.8452296E-2],"split_indices":[37,39,6,37,39,40,35,0,0,0,0,0,0,0,0],"split_type":[0,0,0,0,0,0,0,0,0,0,0,0,0,0,0],"sum_hessian":[6.9607495E2,6.762298E2,1.9845118E1,5.5885706E2,1.1737274E2,1.2328513E1,7.5166054E0,3.658763E2,1.9298077E2,2.8037848E1,8.933489E1,1.1173142E1,1.1553705E0,1.8196537E0,5.696952E0],"tree_param":{"num_deleted":"0","num_feature":"41","num_nodes":"15","size_leaf_vector":"1"}},{"base_weights":[-4.860589E-3,-1.1125027E-1,7.9671964E-2,-4.141747E-2,-3.0508867E-1,-1.3543397E-2,2.0658064E-1,5.0776745E-3,-2.2972835E-2,-1.8951302E-2,-4.9694575E-2,-7.0161945E-3,2.0827565E-2,2.8034795E-2,-4.019154E-3],"categories":[],"categories_nodes":[],"categories_segments":[],"categories_sizes":[],"default_left":[0,0,0,0,0,0,0,0,0,0,0,0,0,0,0],"id":39,"left_children":[1,3,5,7,9,11,13,-1,-1,-1,-1,-1,-1,-1,-1],"loss_changes":[6.2582746E0,4.1577E0,4.5904503E0,3.9638839E0,1.7116475E0,2.8343737E0,3.0018415E0,0E0,0E0,0E0,0E0,0E0,0E0,0E0,0E0],"parents":[2147483647,0,0,1,1,2,2,3,3,4,4,5,5,6,6],"right_children":[2,4,6,8,10,12,14,-1,-1,-1,-1,-1,-1,-1,-1],"split_conditions":[1E0,1E0,1E0,1E0,1E0,1E0,1E0,5.0776745E-3,-2.2972835E-2,-1.8951302E-2,-4.9694575E-2,-7.0161945E-3,2.0827565E-2,2.8034795E-2,-4.019154E-3],"split_indices":[9,36,20,27,12,34,27,0,0,0,0,0,0,0,0],"split_type":[0,0,0,0,0,0,0,0,0,0,0,0,0,0,0],"sum_hessian":[6.9388934E2,3.0708588E2,3.868035E2,2.2664702E2,8.043886E1,2.2351982E2,1.6328368E2,1.5264476E2,7.400226E1,5.143933E1,2.8999527E1,1.7861313E2,4.4906693E1,1.2560166E2,3.768201E1],"tree_param":{"num_deleted":"0","num_feature":"41","num_nodes":"15","size_leaf_vector":"1"}},{"base_weights":[-4.507051E-3,1.1118328E-2,-5.317329E-1,-7.887029E-2,2.0447522E-2,-7.6763934E-1,-1.2158672E-1,2.5416395E-2,-1.3770383E-3,-8.244961E-2,-1.0699812E-2,-7.3260814E-2,3.0870065E-2],"categories":[],"categories_nodes":[],"categories_segments":[],"categories_sizes":[],"default_left":[0,0,0,0,0,0,0,0,0,0,0,0,0],"id":40,"left_children":[1,3,5,-1,7,9,11,-1,-1,-1,-1,-1,-1],"loss_changes":[5.7151103E0,5.0457144E0,1.8387299E0,0E0,5.3397546E0,3.808818E-1,2.4555876E0,0E0,0E0,0E0,0E0,0E0,0E0],"parents":[2147483647,0,0,1,1,2,2,4,4,5,5,6,6],"right_children":[2,4,6,-1,8,10,12,-1,-1,-1,-1,-1,-1],"split_conditions":[1.566437E0,-1.5037035E0,1E0,-7.887029E-2,-1.2402327E0,2.6519654E0,1E0,2.5416395E-2,-1.3770383E-3,-8.244961E-2,-1.0699812E-2,-7.3260814E-2,3.0870065E-2],"split_indices":[37,39,6,0,37,40,26,0,0,0,0,0,0],"split_type":[0,0,0,0,0,0,0,0,0,0,0,0,0],"sum_hessian":[6.920233E2,6.7305493E2,1.8968401E1,6.796866E0,6.6625806E2,1.14887295E1,7.479671E0,8.426695E1,5.819911E2,1.0349957E1,1.1387725E0,2.8004057E0,4.6792655E0],"tree_param":{"num_deleted":"0","num_feature":"41","num_nodes":"13","size_leaf_vector":"1"}},{"base_weights":[-4.406281E-3,-8.471696E-2,8.807098E-2,-6.493423E-2,-7.7824384E-1,1.8128371E-1,-4.236975E-2,-1.0445551E-2,3.1850833E-2,-8.494085E-2,-1.4791821E-2,3.9976865E-2,1.1426813E-2,1.7237383E-3,-3.288863E-2],"categories":[],"categories_nodes":[],"categories_segments":[],"categories_sizes":[],"default_left":[0,0,0,0,0,0,0,0,0,0,0,0,0,0,0],"id":41,"left_children":[1,3,5,7,9,11,13,-1,-1,-1,-1,-1,-1,-1,-1],"loss_changes":[5.1425967E0,5.0335464E0,3.9210808E0,5.5096383E0,3.3127403E-1,2.7056231E0,2.3104494E0,0E0,0E0,0E0,0E0,0E0,0E0,0E0,0E0],"parents":[2147483647,0,0,1,1,2,2,3,3,4,4,5,5,6,6],"right_children":[2,4,6,8,10,12,14,-1,-1,-1,-1,-1,-1,-1,-1],"split_conditions":[1E0,1.6071134E0,1E0,1.2842863E0,1.6412547E0,-9.5549804E-1,-2.2332336E-1,-1.0445551E-2,3.1850833E-2,-8.494085E-2,-1.4791821E-2,3.9976865E-2,1.1426813E-2,1.7237383E-3,-3.288863E-2],"split_indices":[31,37,0,39,39,37,37,0,0,0,0,0,0,0,0],"split_type":[0,0,0,0,0,0,0,0,0,0,0,0,0,0,0],"sum_hessian":[6.9042285E2,3.6956384E2,3.20859E2,3.6037775E2,9.186081E0,1.8690628E2,1.3395271E2,3.2736407E2,3.3013702E1,7.9418616E0,1.2442191E0,4.270704E1,1.4419925E2,1.1166225E2,2.2290466E1],"tree_param":{"num_deleted":"0","num_feature":"41","num_nodes":"15","size_leaf_vector":"1"}},{"base_weights":[-4.113028E-3,3.126985E-2,-2.0770462E-1,-1.909116E-2,2.2870882E-1,-4.224441E-1,2.808141E-3,-9.2691025E-3,1.2130114E-2,-4.996041E-2,2.9033184E-2,-3.0372992E-2,-7.794703E-2,-2.6092801E-2,6.2184047E-2],"categories":[],"categories_nodes":[],"categories_segments":[],"categories_sizes":[],"default_left":[0,0,0,0,0,0,0,0,0,0,0,0,0,0,0],"id":42,"left_children":[1,3,5,7,9,11,13,-1,-1,-1,-1,-1,-1,-1,-1],"loss_changes":[4.972371E0,5.852547E0,4.6210737E0,4.86301E0,5.5132356E0,1.9077806E0,8.749816E0,0E0,0E0,0E0,0E0,0E0,0E0,0E0,0E0],"parents":[2147483647,0,0,1,1,2,2,3,3,4,4,5,5,6,6],"right_children":[2,4,6,8,10,12,14,-1,-1,-1,-1,-1,-1,-1,-1],"split_conditions":[9.15615E-1,1E0,1E0,1E0,1E0,2.0842285E0,2.0042775E0,-9.2691025E-3,1.2130114E-2,-4.996041E-2,2.9033184E-2,-3.0372992E-2,-7.794703E-2,-2.6092801E-2,6.2184047E-2],"split_indices":[37,34,33,20,24,40,40,0,0,0,0,0,0,0,0],"split_type":[0,0,0,0,0,0,0,0,0,0,0,0,0,0,0],"sum_hessian":[6.88355E2,5.8715735E2,1.0119767E2,4.685476E2,1.18609726E2,4.959755E1,5.1600124E1,3.0761957E2,1.6092802E2,8.69831E0,1.09911415E2,3.8610092E1,1.0987458E1,3.6589718E1,1.5010406E1],"tree_param":{"num_deleted":"0","num_feature":"41","num_nodes":"15","size_leaf_vector":"1"}},{"base_weights":[-3.9432887E-3,2.1227077E-1,-3.5221368E-2,2.5856787E-1,-4.0768403E-1,-3.5238105E-1,-4.2832005E-3,1.1584439E-2,5.170654E-2,-7.8968875E-2,5.5443734E-2,-4.468519E-2,1.206815E-2,4.1573443E-3,-1.7151458E-2],"categories":[],"categories_nodes":[],"categories_segments":[],"categories_sizes":[],"default_left":[0,0,0,0,0,0,0,0,0,0,0,0,0,0,0],"id":43,"left_children":[1,3,5,7,9,11,13,-1,-1,-1,-1,-1,-1,-1,-1],"loss_changes":[4.655277E0,2.6024616E0,5.898307E0,2.9493413E0,2.8023832E0,2.4416032E0,4.215989E0,0E0,0E0,0E0,0E0,0E0,0E0,0E0,0E0],"parents":[2147483647,0,0,1,1,2,2,3,3,4,4,5,5,6,6],"right_children":[2,4,6,8,10,12,14,-1,-1,-1,-1,-1,-1,-1,-1],"split_conditions":[-1.2402327E0,1E0,-1.3070403E0,1E0,1E0,1E0,7.5290954E-1,1.1584439E-2,5.170654E-2,-7.8968875E-2,5.5443734E-2,-4.468519E-2,1.206815E-2,4.1573443E-3,-1.7151458E-2],"split_indices":[37,17,39,4,11,29,37,0,0,0,0,0,0,0,0],"split_type":[0,0,0,0,0,0,0,0,0,0,0,0,0,0,0],"sum_hessian":[6.8626373E2,8.599877E1,6.0026495E2,8.056523E1,5.4335394E0,5.2426796E1,5.478382E2,5.2839348E1,2.7725883E1,4.017597E0,1.4159424E0,4.3746086E1,8.680709E0,4.3053284E2,1.1730534E2],"tree_param":{"num_deleted":"0","num_feature":"41","num_nodes":"15","size_leaf_vector":"1"}},{"base_weights":[-3.6028044E-3,3.7159085E-2,-1.4538889E-1,1.1840912E-1,-5.7683323E-2,4.2225906E-1,-1.8865822E-1,3.2676227E-2,4.1386174E-4,6.832797E-3,-1.32366065E-2,-2.3165587E-2,5.2058376E-2,-3.5139065E-2,-4.704667E-3],"categories":[],"categories_nodes":[],"categories_segments":[],"categories_sizes":[],"default_left":[0,0,0,0,0,0,0,0,0,0,0,0,0,0,0],"id":44,"left_children":[1,3,5,7,9,11,13,-1,-1,-1,-1,-1,-1,-1,-1],"loss_changes":[3.9608629E0,4.109268E0,3.838242E0,6.833165E0,2.3270562E0,8.373126E-1,3.2760773E0,0E0,0E0,0E0,0E0,0E0,0E0,0E0,0E0],"parents":[2147483647,0,0,1,1,2,2,3,3,4,4,5,5,6,6],"right_children":[2,4,6,8,10,12,14,-1,-1,-1,-1,-1,-1,-1,-1],"split_conditions":[1E0,1E0,-9.8440856E-1,-4.9067375E-1,-9.191217E-1,-9.977337E-1,1E0,3.2676227E-2,4.1386174E-4,6.832797E-3,-1.32366065E-2,-2.3165587E-2,5.2058376E-2,-3.5139065E-2,-4.704667E-3],"split_indices":[36,0,40,40,40,40,4,0,0,0,0,0,0,0,0],"split_type":[0,0,0,0,0,0,0,0,0,0,0,0,0,0,0],"sum_hessian":[6.833986E2,5.3137286E2,1.5202574E2,2.8606064E2,2.4531223E2,1.014714E1,1.418786E2,1.0066156E2,1.8539908E2,9.1317825E1,1.539944E2,1.1490794E0,8.99806E0,6.5326965E1,7.6551636E1],"tree_param":{"num_deleted":"0","num_feature":"41","num_nodes":"15","size_leaf_vector":"1"}},{"base_weights":[-3.271231E-3,7.07514E-3,-5.880567E-1,-7.414842E-2,1.5187739E-2,-7.4797386E-1,8.144179E-3,-2.1997206E-3,1.6049726E-2,-8.231777E-2,-1.2625805E-2,2.5556672E-2,-2.426116E-2],"categories":[],"categories_nodes":[],"categories_segments":[],"categories_sizes":[],"default_left":[0,0,0,0,0,0,0,0,0,0,0,0,0],"id":45,"left_children":[1,3,5,-1,7,9,11,-1,-1,-1,-1,-1,-1],"loss_changes":[4.130704E0,4.0870466E0,1.1377091E0,0E0,3.5964324E0,3.3413982E-1,2.791205E-1,0E0,0E0,0E0,0E0,0E0,0E0],"parents":[2147483647,0,0,1,1,2,2,4,4,5,5,6,6],"right_children":[2,4,6,-1,8,10,12,-1,-1,-1,-1,-1,-1],"split_conditions":[1.6071134E0,-1.5037035E0,1E0,-7.414842E-2,1.029781E0,1.6412547E0,1E0,-2.1997206E-3,1.6049726E-2,-8.231777E-2,-1.2625805E-2,2.5556672E-2,-2.426116E-2],"split_indices":[37,39,31,0,39,39,33,0,0,0,0,0,0],"split_type":[0,0,0,0,0,0,0,0,0,0,0,0,0],"sum_hessian":[6.810274E2,6.7015845E2,1.0868939E1,6.215845E0,6.639426E2,8.369458E0,2.4994817E0,5.2933386E2,1.3460878E2,7.177244E0,1.1922143E0,1.2484456E0,1.2510359E0],"tree_param":{"num_deleted":"0","num_feature":"41","num_nodes":"13","size_leaf_vector":"1"}},{"base_weights":[-3.2275678E-3,-8.5582785E-2,6.111876E-2,3.4765673E-1,-1.0995719E-1,2.0676114E-2,2.891294E-1,-4.4329297E-2,5.5605203E-2,-6.837559E-2,-8.902544E-3,1.0941506E-2,-1.42803285E-2,1.5273562E-1,2.039357E-2],"categories":[],"categories_nodes":[],"categories_segments":[],"categories_sizes":[],"default_left":[0,0,0,0,0,0,0,0,0,0,0,0,0,0,0],"id":46,"left_children":[1,3,5,7,9,11,13,-1,-1,-1,-1,-1,-1,-1,-1],"loss_changes":[3.6164467E0,3.1990097E0,3.5270858E0,2.9139714E0,3.351758E0,4.752102E0,5.769242E0,0E0,0E0,0E0,0E0,0E0,0E0,0E0,0E0],"parents":[2147483647,0,0,1,1,2,2,3,3,4,4,5,5,6,6],"right_children":[2,4,6,8,10,12,14,-1,-1,-1,-1,-1,-1,-1,-1],"split_conditions":[1E0,-9.973825E-1,1.029781E0,-1.5003982E0,-1.4937876E0,-4.9747905E-1,1.0463072E0,-4.4329297E-2,5.5605203E-2,-6.837559E-2,-8.902544E-3,1.0941506E-2,-1.42803285E-2,1.5273562E-1,2.039357E-2],"split_indices":[9,40,39,39,39,40,39,0,0,0,0,0,0,0,0],"split_type":[0,0,0,0,0,0,0,0,0,0,0,0,0,0,0],"sum_hessian":[6.8045715E2,2.983178E2,3.8213934E2,1.5183183E1,2.831346E2,3.2549622E2,5.664315E1,2.9311259E0,1.2252056E1,8.850529E0,2.742841E2,2.1118997E2,1.1430622E2,2.556615E0,5.4086533E1],"tree_param":{"num_deleted":"0","num_feature":"41","num_nodes":"15","size_leaf_vector":"1"}},{"base_weights":[-2.8066833E-3,9.161702E-3,-4.503249E-1,-6.429114E-2,8.379232E-2,-7.1089375E-1,-4.7388967E-2,-4.1472428E-3,-6.1672445E-2,3.75319E-2,2.3167655E-3,-7.738381E-2,-7.7093663E-3,-6.741493E-2,3.7991878E-2],"categories":[],"categories_nodes":[],"categories_segments":[],"categories_sizes":[],"default_left":[0,0,0,0,0,0,0,0,0,0,0,0,0,0,0],"id":47,"left_children":[1,3,5,7,9,11,13,-1,-1,-1,-1,-1,-1,-1,-1],"loss_changes":[3.6437411E0,3.6388052E0,1.8267677E0,4.19242E0,5.809557E0,3.6679363E-1,2.406794E0,0E0,0E0,0E0,0E0,0E0,0E0,0E0,0E0],"parents":[2147483647,0,0,1,1,2,2,3,3,4,4,5,5,6,6],"right_children":[2,4,6,8,10,12,14,-1,-1,-1,-1,-1,-1,-1,-1],"split_conditions":[1.566437E0,4.067388E-1,1E0,4.7093573E-1,-6.727921E-1,2.6519654E0,1E0,-4.1472428E-3,-6.1672445E-2,3.75319E-2,2.3167655E-3,-7.738381E-2,-7.7093663E-3,-6.741493E-2,3.7991878E-2],"split_indices":[37,39,6,40,40,40,26,0,0,0,0,0,0,0,0],"split_type":[0,0,0,0,0,0,0,0,0,0,0,0,0,0,0],"sum_hessian":[6.785309E2,6.61811E2,1.6719885E1,3.3360718E2,3.2820383E2,9.689582E0,7.0303025E0,3.2140628E2,1.2200879E1,5.5608345E1,2.725955E2,8.61323E0,1.0763522E0,2.6158278E0,4.4144745E0],"tree_param":{"num_deleted":"0","num_feature":"41","num_nodes":"15","size_leaf_vector":"1"}},{"base_weights":[-2.7856845E-3,6.0904846E-3,-5.4182136E-1,7.156527E-2,-6.774766E-2,-7.5846606E-1,-1.3933304E-1,2.2608357E-2,-1.004193E-3,-3.7194665E-3,-3.854209E-2,-8.725699E-2,-5.818946E-3,2.4703221E-2,-4.590536E-2],"categories":[],"categories_nodes":[],"categories_segments":[],"categories_sizes":[],"default_left":[0,0,0,0,0,0,0,0,0,0,0,0,0,0,0],"id":48,"left_children":[1,3,5,7,9,11,13,-1,-1,-1,-1,-1,-1,-1,-1],"loss_changes":[3.2443397E0,3.2314618E0,8.5216975E-1,4.4689665E0,3.0351028E0,5.018475E-1,7.3954904E-1,0E0,0E0,0E0,0E0,0E0,0E0,0E0,0E0],"parents":[2147483647,0,0,1,1,2,2,3,3,4,4,5,5,6,6],"right_children":[2,4,6,8,10,12,14,-1,-1,-1,-1,-1,-1,-1,-1],"split_conditions":[1.6071134E0,1E0,1E0,-4.9747905E-1,6.308804E-1,1.67596E0,1.307423E0,2.2608357E-2,-1.004193E-3,-3.7194665E-3,-3.854209E-2,-8.725699E-2,-5.818946E-3,2.4703221E-2,-4.590536E-2],"split_indices":[37,0,6,40,37,39,39,0,0,0,0,0,0,0,0],"split_type":[0,0,0,0,0,0,0,0,0,0,0,0,0,0,0],"sum_hessian":[6.763939E2,6.66409E2,9.984894E0,3.5322406E2,3.1318497E2,5.9160557E0,4.0688376E0,1.2146571E2,2.3175833E2,2.8672552E2,2.6459436E1,4.875586E0,1.0404699E0,1.9453434E0,2.1234944E0],"tree_param":{"num_deleted":"0","num_feature":"41","num_nodes":"15","size_leaf_vector":"1"}},{"base_weights":[-2.7592664E-3,1.6921084E-1,-2.765713E-2,2.1192402E-1,-3.8883194E-1,-1.0530393E-1,6.0760155E-2,8.236063E-3,4.588285E-2,5.054458E-2,-7.430321E-2,-4.5667035E-3,-3.0454883E-2,1.965835E-2,-2.7885095E-3],"categories":[],"categories_nodes":[],"categories_segments":[],"categories_sizes":[],"default_left":[0,0,0,0,0,0,0,0,0,0,0,0,0,0,0],"id":49,"left_children":[1,3,5,7,9,11,13,-1,-1,-1,-1,-1,-1,-1,-1],"loss_changes":[2.8985796E0,2.123191E0,4.065583E0,2.5271044E0,2.4155073E0,3.7310443E0,3.3416724E0,0E0,0E0,0E0,0E0,0E0,0E0,0E0,0E0],"parents":[2147483647,0,0,1,1,2,2,3,3,4,4,5,5,6,6],"right_children":[2,4,6,8,10,12,14,-1,-1,-1,-1,-1,-1,-1,-1],"split_conditions":[-1.2402327E0,1E0,1E0,1E0,1E0,1E0,-2.6399973E-1,8.236063E-3,4.588285E-2,5.054458E-2,-7.430321E-2,-4.5667035E-3,-3.0454883E-2,1.965835E-2,-2.7885095E-3],"split_indices":[37,17,20,4,9,32,37,0,0,0,0,0,0,0,0],"split_type":[0,0,0,0,0,0,0,0,0,0,0,0,0,0,0],"sum_hessian":[6.748782E2,8.46187E1,5.9025946E2,7.9178535E1,5.44017E0,3.141694E2,2.760901E2,5.2803444E1,2.6375088E1,1.4222625E0,4.017907E0,2.4274231E2,7.142709E1,1.0855031E2,1.6753976E2],"tree_param":{"num_deleted":"0","num_feature":"41","num_nodes":"15","size_leaf_vector":"1"}},{"base_weights":[-2.4741844E-3,-6.812362E-2,4.21397E-3,3.8868744E-2,-1.1827746E-1,1.3410686E-4,1.7664483E-2,4.178379E-2,-1.5732123E-2],"categories":[],"categories_nodes":[],"categories_segments":[],"categories_sizes":[],"default_left":[0,0,0,0,0,0,0,0,0],"id":50,"left_children":[1,-1,3,5,7,-1,-1,-1,-1],"loss_changes":[3.0604475E0,0E0,2.8399732E0,2.6956186E0,3.154178E0,0E0,0E0,0E0,0E0],"parents":[2147483647,0,0,2,2,3,3,4,4],"right_children":[2,-1,4,6,8,-1,-1,-1,-1],"split_conditions":[-1.5037035E0,-6.812362E-2,1E0,1.029781E0,-9.8440856E-1,1.3410686E-4,1.7664483E-2,4.178379E-2,-1.5732123E-2],"split_indices":[39,0,36,39,40,0,0,0,0],"split_type":[0,0,0,0,0,0,0,0,0],"sum_hessian":[6.725247E2,5.577943E0,6.669468E2,5.204E2,1.4654677E2,4.097904E2,1.1060964E2,9.289503E0,1.3725726E2],"tree_param":{"num_deleted":"0","num_feature":"41","num_nodes":"9","size_leaf_vector":"1"}},{"base_weights":[-2.297168E-3,5.9452727E-3,-5.1968396E-1,-6.5101707E-1,1.22125475E-2,-6.931153E-1,4.991065E-2,-2.3263047E-2,-8.226086E-2,-1.6750953E-3,1.3994834E-2,-7.751741E-2,-9.44532E-3,2.7665952E-2,-2.0327847E-2],"categories":[],"categories_nodes":[],"categories_segments":[],"categories_sizes":[],"default_left":[0,0,0,0,0,0,0,0,0,0,0,0,0,0,0],"id":51,"left_children":[1,3,5,7,9,11,13,-1,-1,-1,-1,-1,-1,-1,-1],"loss_changes":[2.8722959E0,2.7387733E0,1.0779335E0,2.599063E-1,2.4365811E0,3.2782412E-1,2.5132212E-1,0E0,0E0,0E0,0E0,0E0,0E0,0E0,0E0],"parents":[2147483647,0,0,1,1,2,2,3,3,4,4,5,5,6,6],"right_children":[2,4,6,8,10,12,14,-1,-1,-1,-1,-1,-1,-1,-1],"split_conditions":[1.6071134E0,-1.5037035E0,1E0,-1.2402327E0,1.1024967E0,1.6412547E0,1E0,-2.3263047E-2,-8.226086E-2,-1.6750953E-3,1.3994834E-2,-7.751741E-2,-9.44532E-3,2.7665952E-2,-2.0327847E-2],"split_indices":[37,39,31,37,39,39,33,0,0,0,0,0,0,0,0],"split_type":[0,0,0,0,0,0,0,0,0,0,0,0,0,0,0],"sum_hessian":[6.718071E2,6.622455E2,9.561662E0,5.285838E0,6.5695966E2,7.1636133E0,2.3980489E0,2.222501E0,3.0633373E0,5.3623883E2,1.2072081E2,6.04076E0,1.1228533E0,1.2161769E0,1.181872E0],"tree_param":{"num_deleted":"0","num_feature":"41","num_nodes":"15","size_leaf_vector":"1"}},{"base_weights":[-2.3675133E-3,1.9316847E-2,-1.8426141E-1,1.156415E-2,1.112692E0,-5.3676635E-1,-1.2377927E-2,-3.2834883E-3,1.8370539E-2,1.993918E-2,1.3908873E-1,-8.197337E-2,-1.2735123E-2,-3.3365894E-2,2.6150191E-2],"categories":[],"categories_nodes":[],"categories_segments":[],"categories_sizes":[],"default_left":[0,0,0,0,0,0,0,0,0,0,0,0,0,0,0],"id":52,"left_children":[1,3,5,7,9,11,13,-1,-1,-1,-1,-1,-1,-1,-1],"loss_changes":[2.6556075E0,5.0872364E0,4.3385196E0,4.5798726E0,7.963066E-1,2.6161246E0,4.419257E0,0E0,0E0,0E0,0E0,0E0,0E0,0E0,0E0],"parents":[2147483647,0,0,1,1,2,2,3,3,4,4,5,5,6,6],"right_children":[2,4,6,8,10,12,14,-1,-1,-1,-1,-1,-1,-1,-1],"split_conditions":[1.1189969E0,1.676416E0,1.3223788E0,1E0,1.0376441E0,1E0,1E0,-3.2834883E-3,1.8370539E-2,1.993918E-2,1.3908873E-1,-8.197337E-2,-1.2735123E-2,-3.3365894E-2,2.6150191E-2],"split_indices":[37,40,37,34,37,31,33,0,0,0,0,0,0,0,0],"split_type":[0,0,0,0,0,0,0,0,0,0,0,0,0,0,0],"sum_hessian":[6.713828E2,6.0066833E2,7.071447E1,5.974427E2,3.2256558E0,2.2482891E1,4.8231583E1,4.7558743E2,1.2185527E2,1.1539699E0,2.071686E0,1.270182E1,9.781071E0,2.2094664E1,2.6136919E1],"tree_param":{"num_deleted":"0","num_feature":"41","num_nodes":"15","size_leaf_vector":"1"}},{"base_weights":[-2.108904E-3,7.6444014E-3,-3.9308536E-1,-6.264547E-1,1.3511863E-2,-5.992263E-1,-7.336821E-2,-2.1692289E-2,-8.026656E-2,4.1791048E-2,4.562086E-4,2.7849635E-2,-7.645168E-2,5.218607E-2,-6.1927836E-2],"categories":[],"categories_nodes":[],"categories_segments":[],"categories_sizes":[],"default_left":[0,0,0,0,0,0,0,0,0,0,0,0,0,0,0],"id":53,"left_children":[1,3,5,7,9,11,13,-1,-1,-1,-1,-1,-1,-1,-1],"loss_changes":[2.5631776E0,2.4492133E0,1.0342469E0,2.61446E-1,2.3541784E0,1.6357076E0,2.7773438E0,0E0,0E0,0E0,0E0,0E0,0E0,0E0,0E0],"parents":[2147483647,0,0,1,1,2,2,3,3,4,4,5,5,6,6],"right_children":[2,4,6,8,10,12,14,-1,-1,-1,-1,-1,-1,-1,-1],"split_conditions":[1.566437E0,-1.5037035E0,2.3007247E0,-1.2402327E0,-9.973825E-1,7.290538E-1,1.4776441E0,-2.1692289E-2,-8.026656E-2,4.1791048E-2,4.562086E-4,2.7849635E-2,-7.645168E-2,5.218607E-2,-6.1927836E-2],"split_indices":[37,39,40,37,40,40,39,0,0,0,0,0,0,0,0],"split_type":[0,0,0,0,0,0,0,0,0,0,0,0,0,0,0],"sum_hessian":[6.7037756E2,6.550179E2,1.5359641E1,5.0357394E0,6.499822E2,8.806998E0,6.552643E0,2.186089E0,2.8496504E0,1.30839615E1,6.368982E2,1.2871432E0,7.5198545E0,3.1557975E0,3.396845E0],"tree_param":{"num_deleted":"0","num_feature":"41","num_nodes":"15","size_leaf_vector":"1"}},{"base_weights":[-2.131817E-3,-8.6558126E-2,4.0171877E-2,4.5944255E-2,-1.9939622E-1,1.3057733E-1,-2.8295364E-2,2.8235584E-2,-1.7123627E-2,-4.1590944E-2,-4.529377E-3,-1.7133621E-2,2.1677768E-2,1.3417378E-2,-7.7871713E-3],"categories":[],"categories_nodes":[],"categories_segments":[],"categories_sizes":[],"default_left":[0,0,0,0,0,0,0,0,0,0,0,0,0,0,0],"id":54,"left_children":[1,3,5,7,9,11,13,-1,-1,-1,-1,-1,-1,-1,-1],"loss_changes":[2.3998127E0,3.3625503E0,2.7746563E0,5.386478E0,4.0290074E0,5.062637E0,2.06891E0,0E0,0E0,0E0,0E0,0E0,0E0,0E0,0E0],"parents":[2147483647,0,0,1,1,2,2,3,3,4,4,5,5,6,6],"right_children":[2,4,6,8,10,12,14,-1,-1,-1,-1,-1,-1,-1,-1],"split_conditions":[1E0,-5.0805795E-1,1E0,1E0,1E0,1E0,-9.599534E-1,2.8235584E-2,-1.7123627E-2,-4.1590944E-2,-4.529377E-3,-1.7133621E-2,2.1677768E-2,1.3417378E-2,-7.7871713E-3],"split_indices":[15,37,21,33,2,6,40,0,0,0,0,0,0,0,0],"split_type":[0,0,0,0,0,0,0,0,0,0,0,0,0,0,0],"sum_hessian":[6.699521E2,2.2328725E2,4.4666486E2,1.02967926E2,1.2031932E2,1.9210223E2,2.5456262E2,4.9157494E1,5.3810432E1,4.932251E1,7.099681E1,4.2446667E1,1.4965556E2,5.9117916E1,1.954447E2],"tree_param":{"num_deleted":"0","num_feature":"41","num_nodes":"15","size_leaf_vector":"1"}},{"base_weights":[-2.0289945E-3,5.047814E-3,-4.7620264E-1,-4.3641817E-2,7.249663E-2,-7.0897335E-1,-8.885463E-2,-1.2565245E-3,-3.3616114E-2,1.841994E-2,-1.0623784E-3,-8.214248E-2,-1.8411167E-2,-3.402176E-2,1.6326671E-2],"categories":[],"categories_nodes":[],"categories_segments":[],"categories_sizes":[],"default_left":[0,0,0,0,0,0,0,0,0,0,0,0,0,0,0],"id":55,"left_children":[1,3,5,7,9,11,13,-1,-1,-1,-1,-1,-1,-1,-1],"loss_changes":[2.2463686E0,2.1702192E0,8.2456946E-1,3.485186E0,2.5740147E0,2.0322585E-1,3.621729E-1,0E0,0E0,0E0,0E0,0E0,0E0,0E0,0E0],"parents":[2147483647,0,0,1,1,2,2,3,3,4,4,5,5,6,6],"right_children":[2,4,6,8,10,12,14,-1,-1,-1,-1,-1,-1,-1,-1],"split_conditions":[1.6071134E0,1E0,1E0,7.122332E-1,-2.6399973E-1,2.5833638E0,1E0,-1.2565245E-3,-3.3616114E-2,1.841994E-2,-1.0623784E-3,-8.214248E-2,-1.8411167E-2,-3.402176E-2,1.6326671E-2],"split_indices":[37,20,6,37,37,40,15,0,0,0,0,0,0,0,0],"split_type":[0,0,0,0,0,0,0,0,0,0,0,0,0,0,0],"sum_hessian":[6.677152E2,6.588713E2,8.843975E0,3.8285248E2,2.7601877E2,5.005607E0,3.838368E0,3.4702798E2,3.582449E1,1.1724332E2,1.5877545E2,3.6570537E0,1.3485534E0,1.7471014E0,2.0912664E0],"tree_param":{"num_deleted":"0","num_feature":"41","num_nodes":"15","size_leaf_vector":"1"}},{"base_weights":[-2.0690872E-3,-6.0373515E-1,3.208553E-3,-2.0675223E-2,-7.823988E-2,9.877501E-3,-4.5540482E-1,4.4869282E-4,5.768804E-2,-6.3954465E-2,8.5432585E-3],"categories":[],"categories_nodes":[],"categories_segments":[],"categories_sizes":[],"default_left":[0,0,0,0,0,0,0,0,0,0,0],"id":56,"left_children":[1,3,5,-1,-1,7,9,-1,-1,-1,-1],"loss_changes":[2.1206858E0,2.5012517E-1,2.0305376E0,0E0,0E0,1.9960982E0,1.0023341E0,0E0,0E0,0E0,0E0],"parents":[2147483647,0,0,1,1,2,2,5,5,6,6],"right_children":[2,4,6,-1,-1,8,10,-1,-1,-1,-1],"split_conditions":[-1.5037035E0,-1.2402327E0,1.6071134E0,-2.0675223E-2,-7.823988E-2,2.3007247E0,1E0,4.4869282E-4,5.768804E-2,-6.3954465E-2,8.5432585E-3],"split_indices":[39,37,37,0,0,40,31,0,0,0,0],"split_type":[0,0,0,0,0,0,0,0,0,0,0],"sum_hessian":[6.6624316E2,4.8072567E0,6.614359E2,2.1615655E0,2.6456912E0,6.529199E2,8.516004E0,6.477694E2,5.1505175E0,6.2168374E0,2.299166E0],"tree_param":{"num_deleted":"0","num_feature":"41","num_nodes":"11","size_leaf_vector":"1"}},{"base_weights":[-2.0425844E-3,3.4836773E-2,-8.342712E-2,2.1009387E-1,-5.8379555E-3,-9.541204E-2,1.042614E-1,6.1384447E-2,4.035854E-3,-4.833368E-2,1.9681929E-3,-8.024935E-2,-8.309079E-3],"categories":[],"categories_nodes":[],"categories_segments":[],"categories_sizes":[],"default_left":[0,0,0,0,0,0,0,0,0,0,0,0,0],"id":57,"left_children":[1,3,5,7,9,11,-1,-1,-1,-1,-1,-1,-1],"loss_changes":[2.0047276E0,3.2780805E0,2.9103127E0,5.9111156E0,4.5677595E0,1.7367467E0,0E0,0E0,0E0,0E0,0E0,0E0,0E0],"parents":[2147483647,0,0,1,1,2,2,3,3,4,4,5,5],"right_children":[2,4,6,8,10,12,-1,-1,-1,-1,-1,-1,-1],"split_conditions":[1E0,-1.1588799E0,1.67596E0,1E0,-1.1632613E0,-1.5070087E0,1.042614E-1,6.1384447E-2,4.035854E-3,-4.833368E-2,1.9681929E-3,-8.024935E-2,-8.309079E-3],"split_indices":[27,37,39,0,39,39,0,0,0,0,0,0,0],"split_type":[0,0,0,0,0,0,0,0,0,0,0,0,0],"sum_hessian":[6.6596045E2,4.5868124E2,2.0727922E2,8.561645E1,3.730648E2,2.0600192E2,1.2772958E0,2.4565601E1,6.1050846E1,1.8016733E1,3.5504807E2,2.4298327E0,2.0357208E2],"tree_param":{"num_deleted":"0","num_feature":"41","num_nodes":"13","size_leaf_vector":"1"}},{"base_weights":[-1.8022198E-3,2.5834594E-2,-1.0029344E-1,-8.216926E-2,7.039232E-2,-6.28206E-2,-6.3280106E-1,-9.9002905E-3,1.133759E-1,1.5462349E-2,-4.7135972E-3,-1.1915594E-2,3.634393E-2,-9.8372556E-2,2.8144455E-2],"categories":[],"categories_nodes":[],"categories_segments":[],"categories_sizes":[],"default_left":[0,0,0,0,0,0,0,0,0,0,0,0,0,0,0],"id":58,"left_children":[1,3,5,7,9,11,13,-1,-1,-1,-1,-1,-1,-1,-1],"loss_changes":[1.813224E0,2.5093403E0,2.872799E0,3.2316809E0,3.6585183E0,3.3445215E0,3.3201828E0,0E0,0E0,0E0,0E0,0E0,0E0,0E0,0E0],"parents":[2147483647,0,0,1,1,2,2,3,3,4,4,5,5,6,6],"right_children":[2,4,6,8,10,12,14,-1,-1,-1,-1,-1,-1,-1,-1],"split_conditions":[1E0,1E0,1.3619599E0,1.67596E0,1E0,1.184701E0,1E0,-9.9002905E-3,1.133759E-1,1.5462349E-2,-4.7135972E-3,-1.1915594E-2,3.634393E-2,-9.8372556E-2,2.8144455E-2],"split_indices":[36,28,39,39,0,40,29,0,0,0,0,0,0,0,0],"split_type":[0,0,0,0,0,0,0,0,0,0,0,0,0,0,0],"sum_hessian":[6.641887E2,5.192297E2,1.4495908E2,1.5140169E2,3.6782797E2,1.3647334E2,8.485732E0,1.502403E2,1.1613901E0,2.1408212E2,1.5374585E2,1.21178604E2,1.5294743E1,6.0770984E0,2.4086337E0],"tree_param":{"num_deleted":"0","num_feature":"41","num_nodes":"15","size_leaf_vector":"1"}},{"base_weights":[-1.5750987E-3,-6.2346272E-2,4.5189206E-2,3.061013E-1,-8.401111E-2,2.6834885E-2,4.1435716E-1,-3.4686055E-2,4.5702066E-2,-3.1241977E-3,-2.3959614E-2,4.944786E-3,-4.5140643E-2,5.7545807E-2,-1.838429E-2],"categories":[],"categories_nodes":[],"categories_segments":[],"categories_sizes":[],"default_left":[0,0,0,0,0,0,0,0,0,0,0,0,0,0,0],"id":59,"left_children":[1,3,5,7,9,11,13,-1,-1,-1,-1,-1,-1,-1,-1],"loss_changes":[1.8914093E0,2.3359222E0,2.5374956E0,1.763609E0,2.2431147E0,3.908904E0,1.8159518E0,0E0,0E0,0E0,0E0,0E0,0E0,0E0,0E0],"parents":[2147483647,0,0,1,1,2,2,3,3,4,4,5,5,6,6],"right_children":[2,4,6,8,10,12,14,-1,-1,-1,-1,-1,-1,-1,-1],"split_conditions":[1E0,-9.973825E-1,1.2842863E0,-1.5003982E0,1E0,1.1735599E0,1.4396336E0,-3.4686055E-2,4.5702066E-2,-3.1241977E-3,-2.3959614E-2,4.944786E-3,-4.5140643E-2,5.7545807E-2,-1.838429E-2],"split_indices":[9,40,39,39,36,39,39,0,0,0,0,0,0,0,0],"split_type":[0,0,0,0,0,0,0,0,0,0,0,0,0,0,0],"sum_hessian":[6.635475E2,2.8841415E2,3.751333E2,1.5287923E1,2.7312625E2,3.5838766E2,1.6745655E1,2.6263864E0,1.2661537E1,2.048492E2,6.827704E1,3.43063E2,1.5324653E1,1.3222682E1,3.522974E0],"tree_param":{"num_deleted":"0","num_feature":"41","num_nodes":"15","size_leaf_vector":"1"}},{"base_weights":[-1.4836529E-3,6.6025946E-3,-3.4545237E-1,-2.0218333E-2,1.2794596E-1,-6.1954415E-1,4.4069956E-3,9.75186E-5,-2.7562087E-2,4.767547E-2,1.6465777E-3,-8.205461E-2,-2.8586332E-2,-6.3347094E-2,4.2711522E-2],"categories":[],"categories_nodes":[],"categories_segments":[],"categories_sizes":[],"default_left":[0,0,0,0,0,0,0,0,0,0,0,0,0,0,0],"id":60,"left_children":[1,3,5,7,9,11,13,-1,-1,-1,-1,-1,-1,-1,-1],"loss_changes":[1.8486388E0,2.116586E0,1.4666251E0,2.8844337E0,4.569709E0,3.4001923E-1,2.3464868E0,0E0,0E0,0E0,0E0,0E0,0E0,0E0,0E0],"parents":[2147483647,0,0,1,1,2,2,3,3,4,4,5,5,6,6],"right_children":[2,4,6,8,10,12,14,-1,-1,-1,-1,-1,-1,-1,-1],"split_conditions":[1.566437E0,1.1024967E0,1E0,8.7493867E-1,1.1735599E0,1.325602E0,1E0,9.75186E-5,-2.7562087E-2,4.767547E-2,1.6465777E-3,-8.205461E-2,-2.8586332E-2,-6.3347094E-2,4.2711522E-2],"split_indices":[37,39,6,37,39,39,26,0,0,0,0,0,0,0,0],"split_type":[0,0,0,0,0,0,0,0,0,0,0,0,0,0,0],"sum_hessian":[6.6281934E2,6.485535E2,1.4265828E1,5.318339E2,1.16719635E2,7.5668564E0,6.6989717E0,4.9200323E2,3.9830666E1,2.7475462E1,8.924417E1,3.811699E0,3.7551575E0,2.4712255E0,4.227746E0],"tree_param":{"num_deleted":"0","num_feature":"41","num_nodes":"15","size_leaf_vector":"1"}},{"base_weights":[-1.5488177E-3,1.2954737E-1,-2.0568129E-2,2.4891083E-1,-4.5950245E-2,-7.3765635E-1,-1.3205021E-2,3.0877922E-2,-6.319058E-2,-2.1120941E-2,3.7357263E-2,-1.43929515E-2,-8.4421605E-2,-5.1546264E-2,-6.721518E-4],"categories":[],"categories_nodes":[],"categories_segments":[],"categories_sizes":[],"default_left":[0,0,0,0,0,0,0,0,0,0,0,0,0,0,0],"id":61,"left_children":[1,3,5,7,9,11,13,-1,-1,-1,-1,-1,-1,-1,-1],"loss_changes":[1.6555774E0,1.7737578E0,3.0515902E0,2.8437939E0,2.4985442E0,2.5016665E-1,1.8687083E0,0E0,0E0,0E0,0E0,0E0,0E0,0E0,0E0],"parents":[2147483647,0,0,1,1,2,2,3,3,4,4,5,5,6,6],"right_children":[2,4,6,8,10,12,14,-1,-1,-1,-1,-1,-1,-1,-1],"split_conditions":[-1.2402327E0,1E0,-9.839256E-1,1E0,1E0,-9.9070895E-1,-1.4937876E0,3.0877922E-2,-6.319058E-2,-2.1120941E-2,3.7357263E-2,-1.43929515E-2,-8.4421605E-2,-5.1546264E-2,-6.721518E-4],"split_indices":[37,3,40,30,1,40,39,0,0,0,0,0,0,0,0],"split_type":[0,0,0,0,0,0,0,0,0,0,0,0,0,0,0],"sum_hessian":[6.61926E2,8.312832E1,5.787977E2,4.922796E1,3.390036E1,4.8746643E0,5.7392303E2,4.670303E1,2.5249267E0,2.4676357E1,9.224005E0,1.0994529E0,3.7752118E0,6.3137274E0,5.676093E2],"tree_param":{"num_deleted":"0","num_feature":"41","num_nodes":"15","size_leaf_vector":"1"}},{"base_weights":[-1.6590606E-3,4.1793496E-3,-4.2299947E-1,5.0723724E-2,-4.8873827E-2,-6.094893E-1,8.765087E-2,1.826763E-2,-1.8080885E-3,-3.3332275E-3,-5.1379055E-2,-7.030803E-2,-4.677919E-3,3.2106623E-2,-1.8707206E-2],"categories":[],"categories_nodes":[],"categories_segments":[],"categories_sizes":[],"default_left":[0,0,0,0,0,0,0,0,0,0,0,0,0,0,0],"id":62,"left_children":[1,3,5,7,9,11,13,-1,-1,-1,-1,-1,-1,-1,-1],"loss_changes":[1.6306951E0,1.6177074E0,9.1621566E-1,3.171153E0,2.1952877E0,3.2323456E-1,2.715378E-1,0E0,0E0,0E0,0E0,0E0,0E0,0E0,0E0],"parents":[2147483647,0,0,1,1,2,2,3,3,4,4,5,5,6,6],"right_children":[2,4,6,8,10,12,14,-1,-1,-1,-1,-1,-1,-1,-1],"split_conditions":[1.6071134E0,1E0,1E0,-4.9747905E-1,1.1596733E0,2.5833638E0,1E0,1.826763E-2,-1.8080885E-3,-3.3332275E-3,-5.1379055E-2,-7.030803E-2,-4.677919E-3,3.2106623E-2,-1.8707206E-2],"split_indices":[37,0,31,40,37,40,33,0,0,0,0,0,0,0,0],"split_type":[0,0,0,0,0,0,0,0,0,0,0,0,0,0,0],"sum_hessian":[6.611768E2,6.531168E2,8.0599985E0,3.4792273E2,3.051941E2,5.762115E0,2.2978833E0,1.1867478E2,2.2924794E2,2.9635892E2,8.835191E0,4.7265353E0,1.0355796E0,1.1511393E0,1.146744E0],"tree_param":{"num_deleted":"0","num_feature":"41","num_nodes":"15","size_leaf_vector":"1"}},{"base_weights":[-1.6758809E-3,-5.3888255E-1,2.6240558E-3,-1.6145742E-2,-7.31036E-2,9.685231E-3,-3.0833146E-1,-1.9773391E-4,2.7188728E-2,-5.8498647E-2,2.274133E-3],"categories":[],"categories_nodes":[],"categories_segments":[],"categories_sizes":[],"default_left":[0,0,0,0,0,0,0,0,0,0,0],"id":63,"left_children":[1,3,5,-1,-1,7,9,-1,-1,-1,-1],"loss_changes":[1.5285373E0,2.6304245E-1,1.4452415E0,0E0,0E0,1.9675206E0,1.3519374E0,0E0,0E0,0E0,0E0],"parents":[2147483647,0,0,1,1,2,2,5,5,6,6],"right_children":[2,4,6,-1,-1,8,10,-1,-1,-1,-1],"split_conditions":[-1.5037035E0,-1.2402327E0,1.566437E0,-1.6145742E-2,-7.31036E-2,1.3630551E0,1E0,-1.9773391E-4,2.7188728E-2,-5.8498647E-2,2.274133E-3],"split_indices":[39,37,37,0,0,37,6,0,0,0,0],"split_type":[0,0,0,0,0,0,0,0,0,0,0],"sum_hessian":[6.601054E2,4.25448E0,6.558509E2,2.0561233E0,2.1983564E0,6.422359E2,1.3615034E1,6.1583636E2,2.6399529E1,6.9992743E0,6.6157603E0],"tree_param":{"num_deleted":"0","num_feature":"41","num_nodes":"11","size_leaf_vector":"1"}},{"base_weights":[-1.7201108E-3,-2.5377695E-2,8.5760765E-2,-7.3106565E-2,3.7125573E-2,1.643445E-1,-3.9012122E-1,1.833802E-3,-1.79528E-2,-5.5389064E-3,1.6463025E-2,1.1351391E-1,1.3382445E-2,-7.652288E-2,-1.1994699E-2],"categories":[],"categories_nodes":[],"categories_segments":[],"categories_sizes":[],"default_left":[0,0,0,0,0,0,0,0,0,0,0,0,0,0,0],"id":64,"left_children":[1,3,5,7,9,11,13,-1,-1,-1,-1,-1,-1,-1,-1],"loss_changes":[1.370264E0,1.557271E0,5.3348665E0,2.88201E0,2.6784768E0,3.4530172E0,1.9626613E0,0E0,0E0,0E0,0E0,0E0,0E0,0E0,0E0],"parents":[2147483647,0,0,1,1,2,2,3,3,4,4,5,5,6,6],"right_children":[2,4,6,8,10,12,14,-1,-1,-1,-1,-1,-1,-1,-1],"split_conditions":[1E0,1E0,1.0783205E0,-5.082797E-1,-3.7731078E-1,-9.867136E-1,1.3630551E0,1.833802E-3,-1.79528E-2,-5.5389064E-3,1.6463025E-2,1.1351391E-1,1.3382445E-2,-7.652288E-2,-1.1994699E-2],"split_indices":[34,31,37,40,40,40,37,0,0,0,0,0,0,0,0],"split_type":[0,0,0,0,0,0,0,0,0,0,0,0,0,0,0],"sum_hessian":[6.6004407E2,5.2010205E2,1.3994206E2,2.9480942E2,2.2529259E2,1.2067012E2,1.9271946E1,1.5900722E2,1.358022E2,1.308884E2,9.4404205E1,2.5748537E0,1.1809527E2,7.301816E0,1.1970129E1],"tree_param":{"num_deleted":"0","num_feature":"41","num_nodes":"15","size_leaf_vector":"1"}},{"base_weights":[-1.5339951E-3,-5.203963E-1,2.5084903E-3,-1.518333E-2,-7.1514286E-2,7.631604E-2,-2.8232768E-2,2.5469034E-3,4.884432E-2,-2.2603849E-2,1.3077441E-4],"categories":[],"categories_nodes":[],"categories_segments":[],"categories_sizes":[],"default_left":[0,0,0,0,0,0,0,0,0,0,0],"id":65,"left_children":[1,3,5,-1,-1,7,9,-1,-1,-1,-1],"loss_changes":[1.3854328E0,2.5793195E-1,1.4900999E0,0E0,0E0,4.0339847E0,2.7097843E0,0E0,0E0,0E0,0E0],"parents":[2147483647,0,0,1,1,2,2,5,5,6,6],"right_children":[2,4,6,-1,-1,8,10,-1,-1,-1,-1],"split_conditions":[-1.5037035E0,-1.2402327E0,-8.510029E-1,-1.518333E-2,-7.1514286E-2,1E0,-7.214829E-1,2.5469034E-3,4.884432E-2,-2.2603849E-2,1.3077441E-4],"split_indices":[39,37,40,0,0,14,40,0,0,0,0],"split_type":[0,0,0,0,0,0,0,0,0,0,0],"sum_hessian":[6.58896E2,4.1063375E0,6.547897E2,2.0348935E0,2.0714443E0,1.9209673E2,4.6269293E2,1.7194453E2,2.0152199E1,5.9256264E1,4.0343668E2],"tree_param":{"num_deleted":"0","num_feature":"41","num_nodes":"11","size_leaf_vector":"1"}},{"base_weights":[-1.4734122E-3,-6.351443E-2,2.9082837E-2,4.6752617E-2,-1.603992E-1,1.07946545E-1,-3.0706784E-2,2.635148E-2,-1.5504292E-2,-4.1817468E-2,-4.9888054E-3,-1.545643E-2,1.8227091E-2,-4.221655E-3,5.503867E-2],"categories":[],"categories_nodes":[],"categories_segments":[],"categories_sizes":[],"default_left":[0,0,0,0,0,0,0,0,0,0,0,0,0,0,0],"id":66,"left_children":[1,3,5,7,9,11,13,-1,-1,-1,-1,-1,-1,-1,-1],"loss_changes":[1.2519832E0,2.3356323E0,2.089898E0,4.5330167E0,3.2901092E0,3.7556105E0,1.7118614E0,0E0,0E0,0E0,0E0,0E0,0E0,0E0,0E0],"parents":[2147483647,0,0,1,1,2,2,3,3,4,4,5,5,6,6],"right_children":[2,4,6,8,10,12,14,-1,-1,-1,-1,-1,-1,-1,-1],"split_conditions":[1E0,-5.0805795E-1,1E0,1E0,4.9271155E-2,1E0,1.4653863E0,2.635148E-2,-1.5504292E-2,-4.1817468E-2,-4.9888054E-3,-1.545643E-2,1.8227091E-2,-4.221655E-3,5.503867E-2],"split_indices":[15,37,21,33,40,6,40,0,0,0,0,0,0,0,0],"split_type":[0,0,0,0,0,0,0,0,0,0,0,0,0,0,0],"sum_hessian":[6.5844464E2,2.1692477E2,4.4151984E2,1.01697586E2,1.1522719E2,1.9004338E2,2.5147647E2,4.8883102E1,5.2814484E1,3.374064E1,8.148655E1,4.1695805E1,1.4834758E2,2.4750153E2,3.974934E0],"tree_param":{"num_deleted":"0","num_feature":"41","num_nodes":"15","size_leaf_vector":"1"}},{"base_weights":[-1.357958E-3,-2.2583906E-2,8.841379E-2,8.7033715E-3,-2.2065027E-1,4.1398922E-1,5.928593E-3,-1.00399986E-4,9.084162E-2,-1.0401952E-1,-1.432915E-2,5.282974E-2,-7.792931E-2,-2.0373404E-2,2.171669E-2],"categories":[],"categories_nodes":[],"categories_segments":[],"categories_sizes":[],"default_left":[0,0,0,0,0,0,0,0,0,0,0,0,0,0,0],"id":67,"left_children":[1,3,5,7,9,11,13,-1,-1,-1,-1,-1,-1,-1,-1],"loss_changes":[1.2561053E0,3.3054786E0,3.3829505E0,4.03013E0,4.463855E0,3.8855162E0,4.5437245E0,0E0,0E0,0E0,0E0,0E0,0E0,0E0,0E0],"parents":[2147483647,0,0,1,1,2,2,3,3,4,4,5,5,6,6],"right_children":[2,4,6,8,10,12,14,-1,-1,-1,-1,-1,-1,-1,-1],"split_conditions":[1.1024967E0,4.466562E-1,-2.6399973E-1,4.0073147E-1,2.647931E-1,1.3933599E0,1E0,-1.00399986E-4,9.084162E-2,-1.0401952E-1,-1.432915E-2,5.282974E-2,-7.792931E-2,-2.0373404E-2,2.171669E-2],"split_indices":[39,40,37,40,37,39,33,0,0,0,0,0,0,0,0],"split_type":[0,0,0,0,0,0,0,0,0,0,0,0,0,0,0],"sum_hessian":[6.571553E2,5.320936E2,1.2506167E2,4.603337E2,7.175992E1,2.4467522E1,1.0059415E2,4.5640823E2,3.9254913E0,5.115846E0,6.6644066E1,2.2837154E1,1.6303669E0,5.050319E1,5.0090954E1],"tree_param":{"num_deleted":"0","num_feature":"41","num_nodes":"15","size_leaf_vector":"1"}},{"base_weights":[-1.3297931E-3,-5.008857E-1,2.45599E-3,-1.4628499E-2,-6.957696E-2,3.1285387E-1,-4.594584E-3,4.1885387E-2,-4.2413857E-2,-6.038303E-3,3.5299342E-3],"categories":[],"categories_nodes":[],"categories_segments":[],"categories_sizes":[],"default_left":[0,0,0,0,0,0,0,0,0,0,0],"id":68,"left_children":[1,3,5,-1,-1,7,9,-1,-1,-1,-1],"loss_changes":[1.2443898E0,2.4021769E-1,1.4313629E0,0E0,0E0,1.3124622E0,1.4262173E0,0E0,0E0,0E0,0E0],"parents":[2147483647,0,0,1,1,2,2,5,5,6,6],"right_children":[2,4,6,-1,-1,8,10,-1,-1,-1,-1],"split_conditions":[-1.5037035E0,-9.977337E-1,-9.973825E-1,-1.4628499E-2,-6.957696E-2,1E0,1E0,4.1885387E-2,-4.2413857E-2,-6.038303E-3,3.5299342E-3],"split_indices":[39,40,40,0,0,29,9,0,0,0,0],"split_type":[0,0,0,0,0,0,0,0,0,0,0],"sum_hessian":[6.5633545E2,3.9488952E0,6.5238654E2,2.02143E0,1.9274652E0,1.3526279E1,6.388603E2,1.2202843E1,1.3234365E0,2.6615308E2,3.727072E2],"tree_param":{"num_deleted":"0","num_feature":"41","num_nodes":"11","size_leaf_vector":"1"}},{"base_weights":[-1.3462303E-3,3.5806475E-3,-3.7844223E-1,-1.342062E-3,5.007001E-1,-5.6361884E-1,8.300967E-3,-2.4881011E-3,8.5610775E-3,8.7711476E-2,-2.1977998E-2,-6.616726E-2,-3.0866412E-3],"categories":[],"categories_nodes":[],"categories_segments":[],"categories_sizes":[],"default_left":[0,0,0,0,0,0,0,0,0,0,0,0,0],"id":69,"left_children":[1,3,5,7,9,11,-1,-1,-1,-1,-1,-1,-1],"loss_changes":[1.2216485E0,1.5896987E0,7.714151E-1,1.3201765E0,1.9202043E0,3.0241144E-1,0E0,0E0,0E0,0E0,0E0,0E0,0E0],"parents":[2147483647,0,0,1,1,2,2,3,3,4,4,5,5],"right_children":[2,4,6,8,10,12,-1,-1,-1,-1,-1,-1,-1],"split_conditions":[1.6071134E0,2.3007247E0,1E0,1E0,1E0,1.6015915E0,8.300967E-3,-2.4881011E-3,8.5610775E-3,8.7711476E-2,-2.1977998E-2,-6.616726E-2,-3.0866412E-3],"split_indices":[37,40,31,34,31,39,0,0,0,0,0,0,0],"split_type":[0,0,0,0,0,0,0,0,0,0,0,0,0],"sum_hessian":[6.558112E2,6.4833105E2,7.4801445E0,6.429614E2,5.3696046E0,5.1800375E0,2.300107E0,5.06548E2,1.3641344E2,3.3841522E0,1.9854524E0,4.170469E0,1.0095686E0],"tree_param":{"num_deleted":"0","num_feature":"41","num_nodes":"13","size_leaf_vector":"1"}},{"base_weights":[-1.222204E-3,-4.8078263E-1,2.31077E-3,-1.35919E-2,-6.77911E-2,2.806136E-1,-4.0782546E-3,7.1806596E-3,6.0045004E-2,3.6774278E-3,-5.435589E-3],"categories":[],"categories_nodes":[],"categories_segments":[],"categories_sizes":[],"default_left":[0,0,0,0,0,0,0,0,0,0,0],"id":70,"left_children":[1,3,5,-1,-1,7,9,-1,-1,-1,-1],"loss_changes":[1.1133935E0,2.3457468E-1,1.1616801E0,0E0,0E0,9.360653E-1,1.3145405E0,0E0,0E0,0E0,0E0],"parents":[2147483647,0,0,1,1,2,2,5,5,6,6],"right_children":[2,4,6,-1,-1,8,10,-1,-1,-1,-1],"split_conditions":[-1.5037035E0,-1.2402327E0,-9.973825E-1,-1.35919E-2,-6.77911E-2,1E0,1E0,7.1806596E-3,6.0045004E-2,3.6774278E-3,-5.435589E-3],"split_indices":[39,37,40,0,0,28,0,0,0,0,0],"split_type":[0,0,0,0,0,0,0,0,0,0,0],"sum_hessian":[6.5549493E2,3.8058827E0,6.51689E2,1.9987283E0,1.8071543E0,1.3661903E1,6.380271E2,9.006482E0,4.6554217E0,3.5215558E2,2.8587155E2],"tree_param":{"num_deleted":"0","num_feature":"41","num_nodes":"11","size_leaf_vector":"1"}},{"base_weights":[-1.1353892E-3,3.440128E-3,-3.6016577E-1,-1.0471434E-3,4.4362965E-1,-4.9391973E-1,2.0292804E-2,1.2201961E-3,-1.4552074E-2,-4.7680843E-3,1.2734896E-1,-8.368971E-2,2.1841552E-2],"categories":[],"categories_nodes":[],"categories_segments":[],"categories_sizes":[],"default_left":[0,0,0,0,0,0,0,0,0,0,0,0,0],"id":71,"left_children":[1,3,5,7,9,11,-1,-1,-1,-1,-1,-1,-1],"loss_changes":[1.079517E0,1.2826325E0,7.2303677E-1,1.2336512E0,2.7323592E0,1.8864582E0,0E0,0E0,0E0,0E0,0E0,0E0,0E0],"parents":[2147483647,0,0,1,1,2,2,3,3,4,4,5,5],"right_children":[2,4,6,8,10,12,-1,-1,-1,-1,-1,-1,-1],"split_conditions":[1.6071134E0,2.3007247E0,1E0,1.1189969E0,1E0,1E0,2.0292804E-2,1.2201961E-3,-1.4552074E-2,-4.7680843E-3,1.2734896E-1,-8.368971E-2,2.1841552E-2],"split_indices":[37,40,25,37,30,15,0,0,0,0,0,0,0],"split_type":[0,0,0,0,0,0,0,0,0,0,0,0,0],"sum_hessian":[6.5538605E2,6.481168E2,7.2692437E0,6.4256415E2,5.5526476E0,5.973242E0,1.2960019E0,5.894258E2,5.313838E1,4.079791E0,1.472857E0,3.9139009E0,2.059341E0],"tree_param":{"num_deleted":"0","num_feature":"41","num_nodes":"13","size_leaf_vector":"1"}},{"base_weights":[-9.5537695E-4,-4.2043343E-2,3.910784E-2,4.6695203E-2,-1.20865405E-1,2.8815106E-1,-8.60929E-3,-3.974949E-3,4.1645464E-2,-7.197415E-2,-8.3098635E-3,-3.88627E-2,4.0396865E-2,-3.6939967E-2,2.1651308E-3],"categories":[],"categories_nodes":[],"categories_segments":[],"categories_sizes":[],"default_left":[0,0,0,0,0,0,0,0,0,0,0,0,0,0,0],"id":72,"left_children":[1,3,5,7,9,11,13,-1,-1,-1,-1,-1,-1,-1,-1],"loss_changes":[1.0813627E0,2.2739778E0,3.955199E0,4.915797E0,3.8309834E0,4.35141E0,3.0661302E0,0E0,0E0,0E0,0E0,0E0,0E0,0E0,0E0],"parents":[2147483647,0,0,1,1,2,2,3,3,4,4,5,5,6,6],"right_children":[2,4,6,8,10,12,14,-1,-1,-1,-1,-1,-1,-1,-1],"split_conditions":[4.067388E-1,-5.00556E-1,-6.727921E-1,-6.509455E-1,-4.790718E-1,1E0,-5.417134E-1,-3.974949E-3,4.1645464E-2,-7.197415E-2,-8.3098635E-3,-3.88627E-2,4.0396865E-2,-3.6939967E-2,2.1651308E-3],"split_indices":[39,39,40,39,39,6,40,0,0,0,0,0,0,0,0],"split_type":[0,0,0,0,0,0,0,0,0,0,0,0,0,0,0],"sum_hessian":[6.5491876E2,3.2329993E2,3.3161884E2,1.5227502E2,1.7102492E2,5.251195E1,2.7910687E2,1.2414429E2,2.8130733E1,9.074294E0,1.6195062E2,7.329082E0,4.5182873E1,2.0730806E1,2.5837607E2],"tree_param":{"num_deleted":"0","num_feature":"41","num_nodes":"15","size_leaf_vector":"1"}},{"base_weights":[-9.6575037E-4,2.5255663E-2,-5.9319593E-2,5.4349625E-1,1.6137231E-2,-1.3426338E-1,6.406788E-2,-1.9585654E-2,9.043045E-2,-3.1672772E-2,3.7691842E-3,-4.1952184E-3,-4.751804E-2,-2.8292497E-3,6.9001235E-2],"categories":[],"categories_nodes":[],"categories_segments":[],"categories_sizes":[],"default_left":[0,0,0,0,0,0,0,0,0,0,0,0,0,0,0],"id":73,"left_children":[1,3,5,7,9,11,13,-1,-1,-1,-1,-1,-1,-1,-1],"loss_changes":[1.0034447E0,2.129538E0,1.888684E0,2.2561352E0,3.2097824E0,3.9708712E0,4.500224E0,0E0,0E0,0E0,0E0,0E0,0E0,0E0,0E0],"parents":[2147483647,0,0,1,1,2,2,3,3,4,4,5,5,6,6],"right_children":[2,4,6,8,10,12,14,-1,-1,-1,-1,-1,-1,-1,-1],"split_conditions":[1E0,-9.972508E-1,1E0,-1.4954402E0,-1.1401244E0,1E0,1E0,-1.9585654E-2,9.043045E-2,-3.1672772E-2,3.7691842E-3,-4.1952184E-3,-4.751804E-2,-2.8292497E-3,6.9001235E-2],"split_indices":[27,40,35,39,39,11,1,0,0,0,0,0,0,0,0],"split_type":[0,0,0,0,0,0,0,0,0,0,0,0,0,0,0],"sum_hessian":[6.538155E2,4.5150018E2,2.0231529E2,6.7934675E0,4.4470673E2,1.2581121E2,7.650408E1,2.3779163E0,4.415551E0,2.621274E1,4.18494E2,9.988743E1,2.5923786E1,6.749914E1,9.004943E0],"tree_param":{"num_deleted":"0","num_feature":"41","num_nodes":"15","size_leaf_vector":"1"}},{"base_weights":[-8.315702E-4,1.9709682E-2,-7.4860536E-2,-1.546041E-4,1.9959043E-1,-4.0486656E-2,-5.8264744E-1,-8.836889E-3,5.088301E-3,3.0463224E-2,-3.583194E-2,-2.4506513E-2,4.5568636E-3,-9.419294E-2,3.0989816E-2],"categories":[],"categories_nodes":[],"categories_segments":[],"categories_sizes":[],"default_left":[0,0,0,0,0,0,0,0,0,0,0,0,0,0,0],"id":74,"left_children":[1,3,5,7,9,11,13,-1,-1,-1,-1,-1,-1,-1,-1],"loss_changes":[9.9651355E-1,1.833133E0,2.4608598E0,2.0890129E0,3.0990713E0,2.377075E0,3.161873E0,0E0,0E0,0E0,0E0,0E0,0E0,0E0,0E0],"parents":[2147483647,0,0,1,1,2,2,3,3,4,4,5,5,6,6],"right_children":[2,4,6,8,10,12,14,-1,-1,-1,-1,-1,-1,-1,-1],"split_conditions":[1E0,1E0,1.3619599E0,3.075809E-1,1E0,-4.8568234E-1,1E0,-8.836889E-3,5.088301E-3,3.0463224E-2,-3.583194E-2,-2.4506513E-2,4.5568636E-3,-9.419294E-2,3.0989816E-2],"split_indices":[36,1,39,39,30,39,29,0,0,0,0,0,0,0,0],"split_type":[0,0,0,0,0,0,0,0,0,0,0,0,0,0,0],"sum_hessian":[6.533515E2,5.120138E2,1.4133772E2,4.619947E2,5.0019077E1,1.3338795E2,7.949767E0,1.6905893E2,2.9293576E2,4.2475815E1,7.543261E0,3.8948433E1,9.443952E1,5.628688E0,2.3210795E0],"tree_param":{"num_deleted":"0","num_feature":"41","num_nodes":"15","size_leaf_vector":"1"}},{"base_weights":[-9.3733554E-4,3.7512254E-2,-4.1175213E-2,1.908989E-3,5.3243595E-1,-5.0909483E-1,-2.0257425E-2,2.014983E-3,-4.7859255E-2,1.3181038E-1,2.5298778E-2,-1.0170252E-2,-9.017494E-2,4.2474996E-3,-2.157088E-2],"categories":[],"categories_nodes":[],"categories_segments":[],"categories_sizes":[],"default_left":[0,0,0,0,0,0,0,0,0,0,0,0,0,0,0],"id":75,"left_children":[1,3,5,7,9,11,13,-1,-1,-1,-1,-1,-1,-1,-1],"loss_changes":[1.0127139E0,5.8973823E0,3.120219E0,2.7554505E0,4.5978084E0,2.0909638E0,3.7757103E0,0E0,0E0,0E0,0E0,0E0,0E0,0E0,0E0],"parents":[2147483647,0,0,1,1,2,2,3,3,4,4,5,5,6,6],"right_children":[2,4,6,8,10,12,14,-1,-1,-1,-1,-1,-1,-1,-1],"split_conditions":[-4.7262874E-1,-5.479919E-1,-4.239819E-1,-5.875723E-1,-2.8571388E-1,-4.4918343E-1,1E0,2.014983E-3,-4.7859255E-2,1.3181038E-1,2.5298778E-2,-1.0170252E-2,-9.017494E-2,4.2474996E-3,-2.157088E-2],"split_indices":[40,40,40,40,39,40,29,0,0,0,0,0,0,0,0],"split_type":[0,0,0,0,0,0,0,0,0,0,0,0,0,0,0],"sum_hessian":[6.525776E2,3.3373883E2,3.1883875E2,3.1227835E2,2.1460472E1,1.2644745E1,3.06194E2,3.017802E2,1.049814E1,4.655299E0,1.6805172E1,6.8238173E0,5.8209276E0,2.3238878E2,7.380523E1],"tree_param":{"num_deleted":"0","num_feature":"41","num_nodes":"15","size_leaf_vector":"1"}},{"base_weights":[-9.273698E-4,4.6992833E-3,-2.6319826E-1,-6.8575847E-3,2.6360214E-1,-5.3542405E-1,3.528495E-2,1.0779815E-3,-3.908073E-2,-6.460921E-2,4.403883E-2,-7.739844E-2,-1.877703E-2,-6.0801905E-2,4.5338914E-2],"categories":[],"categories_nodes":[],"categories_segments":[],"categories_sizes":[],"default_left":[0,0,0,0,0,0,0,0,0,0,0,0,0,0,0],"id":76,"left_children":[1,3,5,7,9,11,13,-1,-1,-1,-1,-1,-1,-1,-1],"loss_changes":[9.6530175E-1,1.9184058E0,1.1352196E0,4.163194E0,4.6904597E0,4.5572305E-1,2.2906241E0,0E0,0E0,0E0,0E0,0E0,0E0,0E0,0E0],"parents":[2147483647,0,0,1,1,2,2,3,3,4,4,5,5,6,6],"right_children":[2,4,6,8,10,12,14,-1,-1,-1,-1,-1,-1,-1,-1],"split_conditions":[1.566437E0,1.3630551E0,1E0,1.1189969E0,1.072721E0,2.3007247E0,1E0,1.0779815E-3,-3.908073E-2,-6.460921E-2,4.403883E-2,-7.739844E-2,-1.877703E-2,-6.0801905E-2,4.5338914E-2],"split_indices":[37,37,6,37,40,40,26,0,0,0,0,0,0,0,0],"split_type":[0,0,0,0,0,0,0,0,0,0,0,0,0,0,0],"sum_hessian":[6.5229016E2,6.395515E2,1.2738597E1,6.131551E2,2.6396416E1,6.24717E0,6.4914265E0,5.87155E2,2.6000067E1,3.8631303E0,2.2533285E1,2.9776177E0,3.2695525E0,2.3781402E0,4.113286E0],"tree_param":{"num_deleted":"0","num_feature":"41","num_nodes":"15","size_leaf_vector":"1"}},{"base_weights":[-1.1647742E-3,9.795186E-2,-1.5645476E-2,1.3017055E-1,-3.6318302E-1,-6.921207E-1,-8.876093E-3,4.181777E-3,2.9207638E-2,-6.803653E-2,-2.7005745E-3,-1.1776747E-2,-7.991244E-2,4.5554694E-2,-1.6084913E-3],"categories":[],"categories_nodes":[],"categories_segments":[],"categories_sizes":[],"default_left":[0,0,0,0,0,0,0,0,0,0,0,0,0,0,0],"id":77,"left_children":[1,3,5,7,9,11,13,-1,-1,-1,-1,-1,-1,-1,-1],"loss_changes":[9.3876415E-1,1.2860332E0,2.6069024E0,1.113131E0,5.903605E-1,2.5254393E-1,1.9021897E0,0E0,0E0,0E0,0E0,0E0,0E0,0E0,0E0],"parents":[2147483647,0,0,1,1,2,2,3,3,4,4,5,5,6,6],"right_children":[2,4,6,8,10,12,14,-1,-1,-1,-1,-1,-1,-1,-1],"split_conditions":[-1.2402327E0,1E0,-9.839256E-1,-9.799302E-1,-9.867136E-1,-9.9070895E-1,-9.713468E-1,4.181777E-3,2.9207638E-2,-6.803653E-2,-2.7005745E-3,-1.1776747E-2,-7.991244E-2,4.5554694E-2,-1.6084913E-3],"split_indices":[37,30,40,40,40,40,40,0,0,0,0,0,0,0,0],"split_type":[0,0,0,0,0,0,0,0,0,0,0,0,0,0,0],"sum_hessian":[6.519964E2,8.237777E1,5.6961865E2,7.766889E1,4.708875E0,4.6405287E0,5.649781E2,5.1062256E1,2.6606636E1,1.8960906E0,2.8127847E0,1.0586592E0,3.5818694E0,7.6849937E0,5.572931E2],"tree_param":{"num_deleted":"0","num_feature":"41","num_nodes":"15","size_leaf_vector":"1"}},{"base_weights":[-1.1849237E-3,-2.0510519E-2,8.041036E-2,6.7842463E-3,-1.99764E-1,3.6348674E-1,-4.8056412E-3,-2.0502438E-3,2.6007626E-2,-4.490445E-2,-5.6240014E-3,7.566919E-2,-7.2197816E-3,-1.0584863E-1,3.5756286E-3],"categories":[],"categories_nodes":[],"categories_segments":[],"categories_sizes":[],"default_left":[0,0,0,0,0,0,0,0,0,0,0,0,0,0,0],"id":78,"left_children":[1,3,5,7,9,11,13,-1,-1,-1,-1,-1,-1,-1,-1],"loss_changes":[1.0302788E0,2.5856833E0,3.019917E0,3.1802638E0,2.473225E0,5.0163755E0,4.190177E0,0E0,0E0,0E0,0E0,0E0,0E0,0E0,0E0],"parents":[2147483647,0,0,1,1,2,2,3,3,4,4,5,5,6,6],"right_children":[2,4,6,8,10,12,14,-1,-1,-1,-1,-1,-1,-1,-1],"split_conditions":[1.1024967E0,4.7093573E-1,1.1735599E0,4.9271155E-2,7.675805E-1,6.597057E-1,1.1801704E0,-2.0502438E-3,2.6007626E-2,-4.490445E-2,-5.6240014E-3,7.566919E-2,-7.2197816E-3,-1.0584863E-1,3.5756286E-3],"split_indices":[39,40,39,40,40,40,39,0,0,0,0,0,0,0,0],"split_type":[0,0,0,0,0,0,0,0,0,0,0,0,0,0,0],"sum_hessian":[6.513205E2,5.2720276E2,1.2411774E2,4.5836945E2,6.883334E1,2.7962965E1,9.615478E1,4.14622E2,4.374741E1,2.4372723E1,4.446062E1,1.43107395E1,1.3652226E1,2.6340578E0,9.352071E1],"tree_param":{"num_deleted":"0","num_feature":"41","num_nodes":"15","size_leaf_vector":"1"}},{"base_weights":[-1.1792276E-3,-5.192399E-2,1.6151236E-3,2.6754326E-1,-4.784609E-3,3.8134307E-2,-4.7609042E-2,-1.6190534E-2,5.832484E-4],"categories":[],"categories_nodes":[],"categories_segments":[],"categories_sizes":[],"default_left":[0,0,0,0,0,0,0,0,0],"id":79,"left_children":[1,-1,3,5,7,-1,-1,-1,-1],"loss_changes":[9.446084E-1,0E0,1.1065327E0,1.474574E0,1.0604882E0,0E0,0E0,0E0,0E0],"parents":[2147483647,0,0,2,2,3,3,4,4],"right_children":[2,-1,4,6,8,-1,-1,-1,-1],"split_conditions":[-1.5070087E0,-5.192399E-2,-9.973825E-1,1E0,-9.839256E-1,3.8134307E-2,-4.7609042E-2,-1.6190534E-2,5.832484E-4],"split_indices":[39,0,40,29,40,0,0,0,0],"split_type":[0,0,0,0,0,0,0,0,0],"sum_hessian":[6.509352E2,2.5006878E0,6.4843445E2,1.4279345E1,6.3415515E2,1.2806699E1,1.4726461E0,3.9237396E1,5.949177E2],"tree_param":{"num_deleted":"0","num_feature":"41","num_nodes":"9","size_leaf_vector":"1"}},{"base_weights":[-1.188591E-3,5.5089936E-2,-2.504076E-2,1.0083434E-2,4.3179286E-1,-2.1650867E-1,3.4006739E-3,-2.559408E-3,2.0122038E-2,2.7111188E-2,1.3220444E-1,-4.147745E-2,4.1435152E-2,5.4866184E-2,-2.0223649E-3],"categories":[],"categories_nodes":[],"categories_segments":[],"categories_sizes":[],"default_left":[0,0,0,0,0,0,0,0,0,0,0,0,0,0,0],"id":80,"left_children":[1,3,5,7,9,11,13,-1,-1,-1,-1,-1,-1,-1,-1],"loss_changes":[8.7665564E-1,3.2915637E0,2.4983041E0,1.1963376E0,2.606003E0,7.5930214E0,5.1676016E0,0E0,0E0,0E0,0E0,0E0,0E0,0E0,0E0],"parents":[2147483647,0,0,1,1,2,2,3,3,4,4,5,5,6,6],"right_children":[2,4,6,8,10,12,14,-1,-1,-1,-1,-1,-1,-1,-1],"split_conditions":[-8.510029E-1,1E0,-7.214829E-1,3.2906508E-1,-8.6467934E-1,5.2903354E-1,-6.727921E-1,-2.559408E-3,2.0122038E-2,2.7111188E-2,1.3220444E-1,-4.147745E-2,4.1435152E-2,5.4866184E-2,-2.0223649E-3],"split_indices":[40,14,40,39,40,39,40,0,0,0,0,0,0,0,0],"split_type":[0,0,0,0,0,0,0,0,0,0,0,0,0,0,0],"sum_hessian":[6.5104034E2,1.9340262E2,4.5763773E2,1.7367911E2,1.9723507E1,5.8332245E1,3.9930548E2,1.4708955E2,2.6589558E1,1.7812986E1,1.9105216E0,4.4644093E1,1.3688153E1,1.5659187E1,3.836463E2],"tree_param":{"num_deleted":"0","num_feature":"41","num_nodes":"15","size_leaf_vector":"1"}},{"base_weights":[-7.288508E-4,3.3269466E-3,-3.3008862E-1,-6.085846E-3,1.7635182E-1,-5.1621354E-1,9.201405E-2,9.7291183E-4,-3.5775345E-2,-4.947514E-2,2.9400352E-2,-7.2481476E-2,-1.6904896E-2,3.1823136E-2,-1.798624E-2],"categories":[],"categories_nodes":[],"categories_segments":[],"categories_sizes":[],"default_left":[0,0,0,0,0,0,0,0,0,0,0,0,0,0,0],"id":81,"left_children":[1,3,5,7,9,11,13,-1,-1,-1,-1,-1,-1,-1,-1],"loss_changes":[8.703486E-1,1.0495968E0,6.701695E-1,3.404685E0,2.7707565E0,2.8675354E-1,2.5860322E-1,0E0,0E0,0E0,0E0,0E0,0E0,0E0,0E0],"parents":[2147483647,0,0,1,1,2,2,3,3,4,4,5,5,6,6],"right_children":[2,4,6,8,10,12,14,-1,-1,-1,-1,-1,-1,-1,-1],"split_conditions":[1.6071134E0,1.3630551E0,1E0,1.1189969E0,1.072721E0,2.3557158E0,1E0,9.7291183E-4,-3.5775345E-2,-4.947514E-2,2.9400352E-2,-7.2481476E-2,-1.6904896E-2,3.1823136E-2,-1.798624E-2],"split_indices":[37,37,31,37,40,40,33,0,0,0,0,0,0,0,0],"split_type":[0,0,0,0,0,0,0,0,0,0,0,0,0,0,0],"sum_hessian":[6.497259E2,6.4280023E2,